%YAML:1.0
---
opencv_ml_knn:
   format: 3
   is_classifier: 1
   default_k: 10
   samples: !!opencv-matrix
      rows: 140
      cols: 100
      dt: f
      data: [ 0., 0., 0., 228., 255., 255., 255., 210., 0., 0., 0., 0.,
          255., 255., 255., 255., 255., 255., 255., 24., 0., 0., 191.,
          255., 0., 0., 0., 255., 255., 255., 0., 0., 0., 0., 0., 0., 0.,
          255., 255., 255., 0., 0., 0., 0., 229., 255., 255., 255., 255.,
          0., 0., 0., 0., 0., 217., 217., 255., 255., 11., 0., 0., 0.,
          0., 0., 0., 0., 76., 255., 255., 0., 255., 255., 255., 0., 0.,
          0., 76., 255., 255., 6., 24., 255., 255., 255., 13., 37., 255.,
          255., 255., 0., 0., 0., 255., 255., 255., 255., 255., 166., 0.,
          0., 0., 0., 38., 255., 255., 255., 255., 255., 38., 0., 0.,
          192., 255., 255., 140., 0., 146., 255., 255., 98., 0., 255.,
          255., 73., 0., 0., 0., 255., 255., 217., 0., 0., 0., 0., 0.,
          0., 25., 255., 255., 0., 0., 0., 0., 0., 0., 147., 255., 255.,
          215., 0., 0., 0., 0., 0., 224., 255., 255., 131., 0., 0., 0.,
          0., 61., 255., 255., 255., 12., 0., 0., 0., 0., 140., 255.,
          255., 89., 0., 0., 0., 0., 0., 0., 255., 255., 255., 255.,
          255., 255., 255., 255., 255., 255., 255., 255., 255., 255.,
          255., 255., 255., 255., 255., 255., 255., 255., 107., 0., 0.,
          0., 179., 255., 255., 255., 117., 0., 0., 0., 0., 0., 0., 102.,
          255., 255., 102., 0., 0., 0., 0., 0., 0., 0., 204., 204., 0.,
          0., 0., 0., 0., 0., 0., 0., 204., 204., 0., 0., 0., 0., 0., 0.,
          0., 0., 204., 204., 0., 0., 0., 0., 0., 0., 0., 0., 204., 204.,
          0., 0., 0., 0., 0., 0., 0., 0., 204., 255., 102., 0., 0., 0.,
          0., 0., 0., 0., 204., 255., 117., 0., 0., 0., 0., 0., 0., 10.,
          209., 255., 255., 255., 107., 0., 0., 0., 179., 255., 255.,
          255., 255., 179., 0., 0., 0., 107., 255., 255., 255., 255.,
          102., 0., 0., 0., 0., 0., 0., 117., 255., 204., 0., 0., 0., 0.,
          0., 0., 0., 102., 255., 204., 0., 0., 0., 0., 0., 0., 0., 0.,
          204., 204., 0., 0., 0., 0., 0., 0., 0., 0., 204., 204., 0., 0.,
          0., 0., 0., 0., 0., 0., 204., 204., 0., 0., 0., 0., 0., 0., 0.,
          0., 204., 204., 0., 0., 0., 0., 0., 0., 0., 51., 229., 255.,
          102., 0., 0., 0., 0., 0., 0., 102., 255., 255., 255., 179., 0.,
          0., 0., 107., 255., 255., 255., 255., 255., 179., 0., 0., 0.,
          0., 179., 255., 255., 255., 102., 0., 0., 0., 0., 0., 0., 102.,
          255., 204., 0., 0., 0., 0., 0., 0., 0., 0., 204., 204., 0., 0.,
          0., 0., 0., 0., 0., 0., 204., 204., 0., 0., 0., 0., 0., 0., 0.,
          0., 204., 204., 0., 0., 0., 0., 0., 0., 0., 0., 204., 204., 0.,
          0., 0., 0., 0., 0., 0., 0., 204., 204., 0., 0., 0., 0., 0., 0.,
          0., 0., 204., 255., 102., 0., 0., 0., 0., 0., 0., 102., 255.,
          255., 255., 179., 107., 0., 0., 107., 179., 255., 255., 0., 0.,
          51., 255., 255., 255., 255., 255., 51., 0., 0., 209., 255.,
          255., 102., 102., 109., 255., 255., 130., 0., 255., 255., 255.,
          0., 0., 0., 255., 255., 217., 0., 0., 0., 0., 0., 0., 109.,
          255., 255., 130., 0., 0., 0., 0., 0., 222., 255., 255., 163.,
          0., 0., 0., 0., 0., 255., 255., 255., 204., 0., 0., 0., 0.,
          178., 255., 255., 201., 0., 0., 0., 0., 0., 140., 255., 255.,
          89., 0., 0., 0., 0., 0., 87., 255., 255., 255., 255., 255.,
          255., 255., 255., 255., 255., 255., 255., 255., 255., 255.,
          255., 255., 255., 255., 26., 255., 255., 255., 255., 255.,
          229., 229., 255., 255., 255., 255., 255., 255., 255., 179., 0.,
          0., 255., 255., 255., 255., 255., 255., 128., 0., 0., 0., 128.,
          255., 255., 255., 255., 76., 0., 0., 0., 0., 0., 255., 255.,
          255., 26., 0., 0., 0., 0., 0., 0., 255., 229., 26., 26., 26.,
          0., 0., 0., 0., 0., 255., 76., 255., 255., 255., 76., 0., 0.,
          0., 0., 255., 255., 255., 255., 255., 255., 128., 128., 0., 0.,
          255., 255., 255., 255., 255., 255., 255., 255., 0., 179., 255.,
          255., 26., 26., 26., 255., 255., 255., 229., 255., 255., 0.,
          0., 0., 255., 255., 255., 255., 188., 0., 0., 0., 36., 255.,
          255., 255., 255., 255., 255., 255., 12., 0., 29., 207., 255.,
          0., 0., 0., 255., 255., 255., 0., 0., 0., 0., 0., 0., 0., 255.,
          255., 255., 0., 0., 0., 0., 255., 255., 255., 255., 255., 0.,
          0., 0., 0., 0., 217., 217., 255., 255., 6., 0., 0., 0., 0., 0.,
          0., 0., 166., 255., 255., 6., 255., 255., 191., 0., 0., 0.,
          166., 255., 255., 13., 243., 255., 255., 170., 13., 146., 255.,
          255., 255., 0., 0., 25., 255., 255., 255., 255., 255., 166.,
          0., 0., 0., 0., 0., 197., 255., 255., 255., 255., 0., 0., 0.,
          36., 255., 255., 255., 255., 255., 255., 255., 13., 0., 29.,
          191., 255., 0., 0., 0., 191., 255., 255., 0., 0., 0., 0., 0.,
          0., 0., 255., 255., 255., 0., 0., 0., 0., 255., 255., 255.,
          255., 255., 0., 0., 0., 0., 0., 217., 217., 255., 255., 38.,
          0., 0., 0., 0., 0., 0., 0., 0., 255., 255., 12., 255., 255.,
          255., 0., 0., 0., 0., 255., 255., 13., 13., 255., 255., 170.,
          13., 146., 255., 255., 255., 0., 0., 25., 255., 255., 255.,
          255., 255., 188., 0., 0., 0., 0., 51., 255., 255., 255., 255.,
          255., 28., 0., 0., 209., 255., 255., 155., 102., 255., 255.,
          255., 0., 0., 255., 255., 13., 0., 0., 0., 255., 255., 217.,
          0., 0., 0., 0., 0., 0., 109., 255., 255., 0., 0., 0., 0., 0.,
          0., 222., 255., 255., 163., 0., 0., 0., 0., 49., 255., 255.,
          255., 51., 0., 0., 0., 0., 178., 255., 255., 201., 0., 0., 0.,
          0., 0., 140., 255., 255., 89., 0., 0., 0., 0., 0., 87., 255.,
          255., 255., 255., 255., 255., 255., 255., 255., 255., 255.,
          255., 255., 255., 255., 255., 255., 255., 255., 0., 0., 0.,
          197., 255., 255., 255., 255., 0., 0., 0., 36., 255., 255.,
          255., 255., 255., 255., 255., 13., 0., 29., 191., 255., 0., 0.,
          0., 191., 255., 255., 0., 0., 0., 0., 0., 0., 0., 255., 255.,
          255., 0., 0., 0., 0., 255., 255., 255., 255., 255., 0., 0., 0.,
          0., 0., 217., 217., 255., 255., 38., 0., 0., 0., 0., 0., 0.,
          0., 0., 255., 255., 12., 255., 255., 255., 0., 0., 0., 0.,
          255., 255., 13., 13., 255., 255., 170., 13., 146., 255., 255.,
          255., 0., 0., 25., 255., 255., 255., 255., 255., 188., 0., 0.,
          255., 0., 0., 0., 0., 0., 0., 0., 0., 0., 166., 0., 0., 0., 0.,
          0., 0., 0., 0., 0., 166., 0., 255., 255., 0., 255., 255., 191.,
          0., 0., 166., 255., 255., 0., 0., 0., 255., 255., 0., 166.,
          166., 0., 0., 0., 0., 255., 255., 0., 0., 0., 255., 0., 0.,
          255., 255., 255., 0., 0., 0., 0., 166., 0., 255., 255., 0., 0.,
          0., 0., 0., 166., 0., 255., 255., 255., 255., 255., 255., 255.,
          0., 0., 0., 0., 0., 0., 0., 0., 0., 0., 0., 166., 255., 0., 0.,
          0., 0., 0., 0., 0., 0., 166., 255., 0., 0., 13., 0., 0., 13.,
          3., 0., 166., 166., 0., 0., 0., 217., 217., 0., 0., 0., 141.,
          166., 10., 255., 255., 64., 64., 255., 239., 0., 0., 166., 89.,
          89., 0., 0., 0., 255., 255., 0., 58., 255., 0., 0., 0., 21.,
          255., 255., 0., 0., 0., 255., 0., 0., 178., 255., 255., 0., 0.,
          0., 0., 166., 0., 255., 255., 0., 0., 0., 0., 0., 166., 0.,
          255., 255., 255., 255., 255., 255., 255., 0., 0., 25., 0., 0.,
          0., 0., 0., 0., 0., 0., 166., 255., 0., 3., 0., 13., 0., 13.,
          0., 12., 170., 0., 6., 92., 255., 255., 255., 255., 226., 249.,
          255., 6., 136., 255., 255., 255., 255., 180., 35., 217., 255.,
          194., 255., 255., 255., 255., 150., 22., 0., 217., 255., 255.,
          255., 255., 251., 133., 0., 0., 0., 0., 242., 255., 255., 232.,
          108., 0., 0., 0., 0., 0., 242., 255., 230., 67., 0., 0., 0.,
          0., 0., 0., 242., 243., 11., 61., 242., 133., 0., 0., 0., 0.,
          242., 73., 255., 255., 255., 255., 255., 131., 16., 0., 242.,
          255., 255., 255., 255., 255., 255., 255., 64., 119., 249.,
          255., 222., 38., 38., 136., 255., 255., 226., 249., 255., 0.,
          0., 121., 255., 255., 255., 255., 242., 0., 0., 0., 255., 255.,
          255., 255., 255., 255., 255., 255., 0., 198., 255., 255., 121.,
          0., 0., 76., 255., 255., 255., 255., 179., 255., 27., 0., 0.,
          0., 255., 255., 255., 255., 255., 255., 0., 0., 0., 0., 255.,
          255., 255., 255., 80., 255., 0., 0., 0., 0., 255., 255., 255.,
          255., 255., 255., 0., 0., 0., 0., 255., 205., 255., 255., 255.,
          255., 76., 0., 0., 0., 255., 255., 198., 0., 255., 255., 255.,
          60., 38., 255., 255., 255., 0., 0., 0., 242., 255., 255., 255.,
          255., 121., 0., 0., 0., 0., 121., 255., 255., 255., 255., 249.,
          0., 0., 0., 255., 255., 255., 255., 255., 255., 255., 255., 0.,
          25., 255., 255., 255., 0., 0., 19., 255., 255., 255., 255.,
          205., 255., 76., 0., 0., 0., 255., 255., 255., 255., 178.,
          255., 76., 0., 0., 0., 255., 255., 255., 255., 178., 255., 76.,
          0., 0., 0., 255., 255., 255., 255., 255., 255., 76., 0., 0.,
          0., 255., 255., 255., 25., 255., 255., 121., 0., 0., 0., 255.,
          255., 255., 0., 255., 255., 255., 60., 38., 255., 255., 255.,
          0., 0., 0., 242., 255., 255., 255., 255., 242., 0., 0., 0., 0.,
          242., 255., 255., 255., 255., 121., 0., 0., 0., 255., 255.,
          255., 255., 255., 255., 255., 255., 0., 255., 255., 255., 76.,
          0., 0., 76., 255., 255., 25., 255., 179., 255., 0., 0., 0., 0.,
          255., 255., 255., 255., 255., 255., 0., 0., 0., 0., 255., 255.,
          255., 255., 0., 255., 0., 0., 0., 0., 255., 255., 255., 255.,
          179., 255., 0., 0., 0., 0., 255., 205., 255., 255., 255., 255.,
          76., 0., 0., 76., 255., 255., 25., 0., 255., 255., 255., 60.,
          60., 255., 255., 255., 0., 0., 0., 249., 255., 255., 255.,
          255., 121., 0., 0., 40., 0., 0., 0., 0., 0., 0., 0., 0., 89.,
          89., 0., 0., 0., 0., 0., 0., 0., 0., 197., 0., 0., 0., 255.,
          255., 255., 255., 255., 0., 89., 76., 0., 0., 157., 38., 0.,
          0., 255., 253., 0., 89., 0., 0., 0., 0., 0., 255., 255., 0.,
          89., 0., 0., 0., 0., 206., 242., 255., 13., 0., 255., 89., 36.,
          255., 17., 0., 0., 255., 255., 0., 89., 89., 0., 255., 255.,
          0., 10., 255., 255., 0., 89., 0., 0., 0., 166., 255., 255.,
          166., 0., 0., 147., 0., 0., 0., 0., 0., 0., 0., 0., 0., 255.,
          0., 11., 146., 255., 255., 255., 244., 236., 255., 255., 0.,
          76., 255., 255., 255., 255., 178., 70., 220., 255., 191., 210.,
          255., 255., 255., 236., 45., 0., 178., 255., 255., 255., 255.,
          255., 244., 0., 0., 0., 0., 229., 255., 255., 255., 192., 17.,
          0., 0., 0., 63., 238., 255., 205., 89., 27., 149., 0., 0., 0.,
          63., 238., 231., 9., 121., 242., 254., 0., 0., 0., 170., 254.,
          83., 255., 255., 255., 255., 236., 64., 32., 45., 236., 255.,
          255., 255., 157., 241., 255., 255., 127., 178., 255., 255.,
          255., 146., 11., 34., 255., 255., 236., 244., 255., 255., 255.,
          255., 255., 255., 255., 255., 255., 255., 255., 255., 0., 0.,
          0., 0., 0., 0., 0., 0., 255., 255., 0., 128., 255., 255., 255.,
          255., 0., 0., 255., 255., 0., 255., 0., 0., 0., 255., 0., 0.,
          255., 255., 0., 0., 0., 0., 255., 255., 0., 0., 255., 255., 0.,
          0., 255., 255., 209., 0., 0., 0., 255., 255., 0., 255., 255.,
          0., 0., 0., 0., 0., 255., 255., 255., 255., 255., 255., 255.,
          255., 255., 0., 255., 255., 0., 0., 0., 0., 0., 0., 0., 0.,
          255., 255., 255., 255., 255., 255., 255., 255., 255., 255.,
          255., 255., 255., 255., 255., 255., 255., 255., 255., 255.,
          255., 255., 0., 0., 0., 0., 0., 0., 0., 0., 255., 255., 0.,
          255., 255., 255., 255., 255., 0., 0., 255., 255., 0., 255.,
          51., 0., 0., 255., 0., 0., 255., 255., 0., 0., 0., 25., 255.,
          255., 0., 0., 255., 255., 0., 0., 204., 255., 140., 0., 0., 0.,
          255., 255., 0., 255., 255., 0., 64., 64., 64., 0., 255., 255.,
          242., 255., 255., 255., 255., 255., 255., 0., 255., 255., 0.,
          0., 0., 0., 0., 0., 0., 0., 255., 255., 255., 255., 255., 255.,
          255., 255., 255., 255., 255., 0., 0., 0., 0., 0., 255., 255.,
          255., 140., 0., 0., 0., 13., 245., 255., 133., 0., 191., 255.,
          0., 255., 255., 255., 255., 255., 255., 242., 191., 255., 0.,
          255., 255., 255., 51., 0., 89., 255., 242., 255., 0., 0., 0.,
          0., 0., 0., 89., 255., 0., 255., 130., 0., 0., 0., 0., 0., 89.,
          255., 64., 255., 217., 0., 0., 0., 0., 0., 0., 255., 64., 255.,
          217., 0., 0., 0., 0., 0., 0., 255., 255., 255., 217., 0., 0.,
          0., 0., 0., 0., 255., 255., 255., 217., 0., 0., 0., 0., 0., 0.,
          255., 255., 255., 240., 0., 11., 146., 255., 255., 255., 244.,
          217., 244., 255., 11., 157., 255., 255., 255., 243., 98., 0.,
          178., 255., 198., 255., 255., 255., 255., 229., 0., 0., 178.,
          255., 255., 255., 255., 255., 244., 0., 0., 0., 0., 229., 255.,
          255., 255., 192., 17., 0., 0., 0., 0., 229., 255., 205., 89.,
          27., 149., 149., 0., 0., 0., 229., 231., 9., 121., 242., 254.,
          11., 0., 0., 0., 229., 83., 255., 255., 255., 255., 255., 198.,
          32., 0., 229., 255., 255., 255., 157., 115., 255., 255., 127.,
          98., 243., 255., 255., 146., 11., 0., 255., 255., 236., 244.,
          255., 255., 0., 0., 0., 0., 0., 0., 6., 1., 9., 179., 0., 0.,
          0., 217., 152., 0., 0., 0., 0., 178., 0., 255., 255., 64.,
          121., 255., 255., 0., 0., 116., 80., 89., 0., 0., 0., 255.,
          255., 0., 0., 220., 0., 0., 0., 0., 255., 255., 57., 0., 0.,
          255., 0., 0., 255., 255., 255., 0., 0., 0., 98., 179., 0.,
          255., 255., 0., 0., 0., 0., 0., 0., 0., 255., 255., 255., 255.,
          255., 255., 255., 0., 0., 0., 0., 0., 0., 0., 0., 0., 0., 0.,
          0., 255., 0., 0., 1., 9., 0., 13., 6., 13., 13., 0., 0., 0.,
          0., 0., 255., 255., 255., 140., 0., 0., 0., 13., 245., 255.,
          133., 0., 191., 255., 0., 255., 255., 255., 255., 255., 255.,
          242., 191., 255., 0., 247., 255., 255., 51., 0., 89., 255.,
          255., 255., 0., 0., 0., 0., 0., 0., 89., 255., 25., 255., 217.,
          0., 0., 0., 0., 0., 89., 255., 64., 255., 217., 0., 0., 0., 0.,
          0., 0., 255., 64., 255., 217., 0., 0., 0., 0., 0., 0., 255.,
          255., 255., 217., 0., 0., 0., 0., 0., 0., 255., 255., 255.,
          217., 0., 0., 0., 0., 0., 0., 255., 255., 255., 255., 255.,
          255., 255., 255., 255., 255., 255., 255., 255., 255., 255., 0.,
          0., 0., 0., 0., 0., 0., 0., 255., 255., 0., 0., 38., 255.,
          255., 255., 64., 0., 255., 255., 0., 0., 255., 247., 0., 0.,
          255., 0., 255., 255., 0., 0., 0., 0., 3., 255., 255., 0., 255.,
          255., 0., 0., 0., 25., 255., 255., 0., 0., 255., 255., 0.,
          255., 232., 0., 0., 255., 255., 0., 255., 255., 0., 191., 255.,
          128., 128., 255., 255., 0., 255., 255., 0., 0., 0., 0., 0., 0.,
          0., 0., 255., 255., 255., 255., 255., 255., 255., 255., 255.,
          255., 255., 40., 0., 0., 0., 0., 0., 0., 0., 0., 164., 89., 0.,
          0., 0., 0., 0., 0., 0., 0., 89., 0., 0., 0., 255., 255., 255.,
          255., 255., 0., 89., 76., 0., 0., 157., 38., 0., 0., 255.,
          255., 0., 89., 0., 0., 0., 0., 206., 255., 255., 0., 89., 0.,
          0., 0., 0., 206., 242., 255., 13., 0., 255., 89., 0., 255.,
          17., 0., 0., 255., 255., 0., 89., 22., 0., 255., 255., 0., 10.,
          255., 255., 0., 89., 0., 0., 0., 166., 255., 255., 166., 0.,
          0., 147., 0., 0., 0., 0., 0., 0., 0., 0., 0., 255., 40., 0.,
          0., 0., 0., 0., 0., 0., 0., 40., 89., 0., 0., 0., 0., 0., 0.,
          0., 0., 58., 89., 0., 0., 255., 255., 255., 255., 255., 0.,
          67., 89., 0., 0., 38., 70., 0., 0., 255., 255., 0., 89., 0.,
          0., 0., 0., 206., 248., 255., 12., 0., 89., 0., 0., 0., 206.,
          242., 255., 73., 0., 89., 76., 0., 255., 136., 0., 0., 115.,
          255., 0., 13., 89., 0., 255., 255., 0., 10., 255., 255., 0.,
          0., 0., 0., 0., 166., 255., 255., 215., 0., 0., 89., 0., 0.,
          0., 0., 0., 0., 0., 0., 0., 89., 34., 0., 0., 0., 0., 0., 0.,
          0., 0., 76., 76., 0., 0., 0., 0., 0., 0., 0., 0., 192., 76.,
          0., 0., 255., 255., 255., 255., 255., 0., 210., 76., 0., 0.,
          38., 27., 0., 0., 255., 255., 0., 76., 0., 0., 0., 0., 73.,
          255., 255., 1., 76., 76., 0., 0., 0., 242., 242., 255., 13.,
          0., 255., 65., 25., 255., 60., 0., 0., 255., 255., 0., 76.,
          76., 0., 255., 255., 0., 45., 255., 255., 0., 76., 0., 0., 0.,
          166., 255., 255., 166., 0., 0., 139., 0., 0., 0., 0., 0., 0.,
          0., 0., 0., 157., 0., 0., 0., 0., 0., 255., 255., 255., 255.,
          0., 0., 0., 0., 255., 255., 214., 0., 0., 255., 0., 255., 255.,
          255., 255., 255., 255., 255., 255., 255., 0., 255., 255., 255.,
          20., 0., 0., 255., 0., 255., 204., 0., 0., 0., 0., 0., 0.,
          255., 0., 255., 204., 0., 0., 0., 0., 0., 0., 255., 255., 255.,
          255., 0., 0., 0., 0., 0., 0., 255., 255., 255., 255., 0., 0.,
          0., 0., 0., 0., 255., 255., 255., 255., 0., 0., 0., 0., 0., 0.,
          255., 255., 255., 255., 0., 0., 0., 0., 0., 0., 255., 255.,
          255., 255., 255., 255., 255., 255., 255., 255., 255., 255.,
          255., 255., 255., 0., 0., 0., 0., 0., 0., 0., 0., 255., 255.,
          0., 207., 255., 255., 255., 255., 0., 0., 255., 255., 0., 255.,
          38., 0., 0., 255., 191., 0., 255., 255., 0., 0., 0., 0., 255.,
          255., 0., 0., 255., 255., 0., 0., 245., 255., 245., 0., 0., 0.,
          255., 255., 0., 255., 255., 0., 0., 10., 48., 0., 255., 255.,
          255., 255., 255., 255., 255., 255., 255., 0., 255., 255., 0.,
          0., 0., 0., 0., 0., 0., 0., 255., 255., 255., 255., 255., 255.,
          255., 255., 255., 255., 255., 0., 0., 0., 0., 0., 255., 255.,
          255., 140., 0., 0., 0., 13., 255., 255., 133., 0., 191., 255.,
          0., 255., 255., 255., 255., 255., 255., 242., 191., 255., 0.,
          247., 255., 255., 3., 0., 89., 255., 255., 255., 0., 0., 0.,
          0., 0., 0., 89., 255., 38., 255., 217., 0., 0., 0., 0., 0.,
          54., 255., 64., 255., 217., 0., 0., 0., 0., 0., 0., 255., 64.,
          255., 217., 0., 0., 0., 0., 0., 0., 255., 255., 255., 217., 0.,
          0., 0., 0., 0., 0., 255., 255., 255., 217., 0., 0., 0., 0., 0.,
          0., 255., 255., 255., 255., 255., 255., 255., 255., 255., 255.,
          255., 255., 255., 255., 255., 0., 0., 0., 0., 0., 0., 0., 0.,
          255., 255., 0., 0., 76., 255., 255., 255., 255., 0., 255.,
          255., 0., 0., 255., 231., 0., 0., 255., 170., 255., 255., 0.,
          0., 0., 0., 166., 255., 255., 0., 255., 255., 0., 0., 0., 17.,
          166., 255., 45., 0., 255., 255., 0., 255., 255., 0., 0., 255.,
          255., 0., 255., 255., 0., 159., 255., 191., 191., 255., 255.,
          0., 255., 255., 0., 0., 0., 0., 0., 0., 0., 0., 255., 255.,
          255., 255., 255., 255., 255., 255., 255., 255., 255., 255.,
          255., 255., 255., 255., 255., 255., 255., 255., 255., 255., 0.,
          0., 0., 0., 0., 0., 0., 0., 255., 255., 0., 0., 19., 255.,
          255., 255., 255., 0., 255., 255., 0., 0., 255., 255., 0., 0.,
          255., 178., 37., 255., 0., 0., 0., 0., 166., 228., 255., 0.,
          255., 255., 0., 0., 0., 17., 166., 255., 89., 0., 255., 255.,
          0., 255., 255., 0., 0., 178., 255., 0., 255., 255., 0., 127.,
          255., 191., 191., 255., 255., 0., 255., 255., 0., 0., 0., 0.,
          0., 0., 0., 0., 255., 255., 255., 255., 255., 255., 255., 255.,
          255., 255., 255., 255., 255., 255., 255., 255., 255., 255.,
          255., 255., 255., 255., 0., 0., 0., 0., 0., 0., 0., 0., 255.,
          255., 0., 0., 0., 255., 255., 255., 96., 0., 255., 255., 0.,
          0., 255., 255., 0., 63., 255., 0., 255., 255., 0., 0., 0., 0.,
          14., 255., 255., 0., 255., 255., 0., 0., 0., 140., 255., 255.,
          0., 0., 255., 255., 0., 255., 255., 0., 0., 255., 255., 0.,
          255., 255., 0., 191., 255., 128., 185., 255., 223., 0., 255.,
          255., 0., 0., 0., 0., 0., 0., 0., 0., 255., 255., 255., 255.,
          255., 255., 255., 255., 255., 255., 255., 255., 0., 0., 0., 0.,
          0., 0., 0., 0., 255., 255., 0., 0., 0., 0., 0., 0., 57., 246.,
          255., 255., 0., 0., 255., 255., 255., 255., 0., 0., 255., 140.,
          255., 255., 255., 0., 0., 255., 255., 89., 140., 0., 255.,
          255., 65., 0., 0., 217., 255., 255., 140., 0., 255., 255., 0.,
          0., 0., 217., 255., 255., 0., 0., 255., 255., 0., 0., 0., 217.,
          236., 255., 140., 140., 172., 255., 255., 0., 0., 255., 255.,
          45., 140., 255., 0., 0., 233., 255., 255., 229., 0., 0., 255.,
          255., 192., 0., 0., 0., 0., 0., 0., 27., 255., 255., 0., 0.,
          0., 0., 0., 0., 0., 0., 255., 255., 0., 0., 0., 0., 0., 0.,
          57., 246., 255., 255., 0., 0., 255., 255., 255., 255., 0., 0.,
          198., 140., 106., 255., 255., 0., 0., 255., 255., 106., 126.,
          0., 255., 255., 217., 0., 0., 65., 255., 255., 0., 0., 255.,
          255., 217., 0., 0., 0., 255., 255., 0., 0., 255., 83., 217.,
          0., 0., 0., 255., 255., 0., 140., 89., 255., 255., 0., 0.,
          255., 255., 89., 140., 255., 0., 0., 233., 255., 255., 229.,
          0., 0., 152., 255., 192., 0., 0., 0., 0., 0., 0., 0., 255.,
          255., 0., 0., 0., 0., 0., 0., 0., 0., 255., 255., 0., 0., 0.,
          0., 0., 0., 229., 246., 255., 255., 0., 0., 255., 255., 255.,
          255., 0., 0., 198., 140., 89., 255., 255., 0., 0., 255., 255.,
          255., 0., 0., 255., 64., 217., 0., 0., 0., 255., 255., 0., 0.,
          255., 198., 217., 0., 0., 0., 255., 255., 0., 0., 255., 64.,
          217., 0., 0., 0., 255., 255., 0., 140., 89., 255., 255., 0.,
          0., 255., 255., 89., 140., 255., 0., 0., 233., 255., 255.,
          229., 0., 0., 152., 255., 255., 0., 152., 0., 0., 0., 0., 50.,
          174., 0., 0., 51., 0., 0., 0., 0., 0., 0., 0., 0., 0., 0., 0.,
          0., 0., 0., 0., 0., 71., 0., 0., 0., 0., 255., 255., 0., 0.,
          0., 0., 0., 0., 255., 255., 102., 255., 25., 0., 0., 0., 0.,
          0., 0., 0., 0., 0., 25., 0., 0., 143., 0., 0., 0., 0., 0.,
          178., 255., 0., 0., 204., 0., 0., 0., 0., 0., 178., 255., 0.,
          0., 107., 0., 0., 0., 0., 0., 255., 255., 0., 0., 0., 0., 0.,
          0., 0., 0., 0., 0., 0., 0., 0., 0., 0., 0., 0., 0., 0., 0., 0.,
          0., 178., 255., 255., 255., 255., 255., 255., 255., 217., 255.,
          255., 255., 0., 0., 0., 0., 0., 0., 0., 0., 255., 255., 0., 0.,
          0., 255., 255., 0., 0., 0., 255., 255., 33., 255., 255., 10.,
          10., 255., 255., 0., 255., 115., 255., 191., 168., 0., 0.,
          255., 255., 255., 255., 115., 255., 191., 38., 0., 0., 255.,
          255., 255., 115., 115., 255., 255., 211., 0., 0., 255., 255.,
          184., 255., 255., 0., 255., 255., 13., 13., 255., 255., 0.,
          255., 255., 0., 0., 0., 0., 0., 0., 0., 0., 255., 255., 255.,
          255., 255., 255., 255., 255., 255., 255., 255., 255., 255.,
          255., 255., 255., 255., 255., 255., 255., 255., 255., 0., 0.,
          0., 0., 0., 0., 0., 0., 255., 255., 0., 0., 0., 255., 255., 0.,
          0., 0., 255., 255., 0., 255., 255., 0., 122., 255., 255., 0.,
          255., 102., 255., 255., 204., 0., 0., 235., 255., 204., 255.,
          102., 255., 255., 204., 0., 0., 204., 255., 204., 255., 102.,
          255., 0., 204., 0., 0., 204., 255., 204., 255., 255., 0., 255.,
          255., 0., 153., 255., 255., 0., 255., 255., 0., 0., 0., 0., 0.,
          0., 0., 0., 255., 255., 255., 255., 255., 255., 255., 255.,
          255., 102., 255., 255., 255., 255., 255., 255., 255., 255.,
          255., 255., 255., 255., 0., 0., 0., 0., 0., 0., 0., 0., 255.,
          255., 0., 0., 0., 255., 255., 0., 0., 0., 255., 255., 0., 255.,
          255., 0., 0., 255., 255., 0., 255., 102., 255., 0., 204., 0.,
          0., 204., 255., 204., 255., 102., 255., 102., 204., 0., 0.,
          204., 255., 255., 255., 102., 255., 204., 204., 0., 0., 204.,
          255., 204., 255., 255., 0., 255., 255., 153., 153., 255., 255.,
          0., 255., 255., 0., 0., 0., 0., 0., 0., 0., 0., 255., 255.,
          255., 255., 255., 255., 255., 255., 255., 132., 255., 0., 0.,
          26., 0., 0., 0., 0., 0., 0., 0., 0., 0., 0., 0., 0., 0., 0.,
          0., 0., 178., 0., 0., 0., 26., 255., 255., 0., 0., 0., 179.,
          0., 0., 255., 255., 71., 255., 25., 0., 0., 0., 0., 0., 0., 0.,
          0., 0., 25., 0., 0., 143., 0., 0., 0., 0., 0., 178., 255., 0.,
          20., 204., 0., 0., 0., 0., 0., 178., 255., 0., 0., 0., 0., 0.,
          0., 0., 0., 255., 255., 0., 0., 179., 0., 0., 0., 0., 0., 0.,
          0., 0., 0., 178., 0., 0., 0., 0., 0., 0., 0., 0., 0., 178.,
          255., 255., 255., 217., 255., 217., 255., 255., 0., 255., 255.,
          0., 0., 0., 0., 0., 0., 0., 0., 255., 255., 0., 0., 0., 255.,
          255., 0., 0., 0., 255., 255., 0., 255., 255., 242., 255., 0.,
          0., 0., 255., 255., 0., 0., 0., 0., 0., 0., 0., 0., 255., 255.,
          0., 0., 0., 0., 102., 51., 166., 255., 255., 255., 0., 0., 0.,
          0., 247., 51., 0., 0., 255., 255., 0., 0., 0., 0., 255., 51.,
          0., 0., 255., 255., 0., 0., 0., 0., 0., 0., 0., 0., 255., 255.,
          255., 255., 247., 255., 240., 255., 255., 217., 255., 255.,
          255., 255., 217., 255., 217., 255., 255., 0., 255., 0., 0., 0.,
          0., 0., 0., 0., 0., 0., 255., 0., 0., 0., 0., 255., 255., 0.,
          0., 0., 255., 0., 0., 255., 255., 242., 255., 0., 0., 0., 255.,
          0., 0., 0., 0., 0., 102., 51., 0., 0., 255., 0., 0., 0., 0.,
          0., 201., 51., 166., 255., 255., 0., 0., 0., 0., 0., 255., 51.,
          0., 0., 255., 0., 0., 0., 0., 0., 255., 51., 0., 0., 255., 0.,
          0., 0., 0., 0., 0., 0., 0., 0., 255., 217., 255., 255., 247.,
          255., 240., 255., 255., 217., 255., 0., 0., 26., 0., 0., 0.,
          0., 0., 0., 0., 0., 0., 0., 0., 0., 0., 0., 0., 0., 71., 0.,
          0., 0., 26., 255., 255., 0., 0., 0., 0., 0., 0., 255., 255.,
          0., 255., 25., 0., 0., 0., 0., 0., 0., 0., 0., 0., 255., 0.,
          0., 0., 0., 0., 0., 0., 0., 239., 255., 102., 204., 204., 0.,
          0., 0., 0., 0., 255., 255., 0., 0., 0., 0., 0., 0., 0., 0.,
          255., 255., 0., 0., 0., 0., 0., 0., 0., 0., 0., 0., 0., 0., 0.,
          0., 0., 0., 0., 0., 0., 0., 0., 0., 143., 255., 255., 255.,
          217., 255., 217., 255., 255., 0., 255., 255., 0., 0., 0., 0.,
          0., 0., 0., 0., 255., 255., 0., 0., 0., 255., 255., 0., 0., 0.,
          255., 255., 0., 255., 255., 97., 255., 0., 0., 0., 255., 255.,
          0., 0., 0., 0., 0., 0., 0., 0., 255., 255., 0., 0., 0., 0.,
          102., 51., 255., 255., 255., 255., 0., 0., 0., 0., 102., 51.,
          0., 0., 255., 255., 0., 0., 0., 0., 255., 51., 0., 0., 255.,
          255., 0., 0., 0., 0., 0., 0., 0., 0., 255., 255., 255., 255.,
          247., 255., 255., 255., 255., 217., 255., 255., 255., 255.,
          217., 255., 217., 224., 217., 217., 255., 255., 0., 0., 0., 0.,
          0., 0., 0., 0., 255., 255., 0., 0., 0., 255., 255., 0., 0., 0.,
          255., 255., 0., 255., 255., 0., 255., 0., 0., 0., 255., 255.,
          0., 0., 0., 0., 0., 51., 0., 0., 255., 255., 0., 0., 0., 0.,
          255., 51., 255., 255., 255., 255., 0., 0., 0., 0., 255., 51.,
          0., 0., 255., 255., 0., 0., 0., 0., 255., 51., 0., 0., 255.,
          255., 0., 0., 0., 0., 0., 0., 0., 0., 255., 255., 255., 255.,
          247., 255., 255., 255., 255., 217., 255., 115., 255., 204.,
          255., 0., 0., 38., 255., 255., 0., 115., 255., 64., 255., 0.,
          0., 38., 255., 255., 0., 255., 166., 255., 255., 0., 0., 255.,
          255., 166., 0., 255., 0., 255., 255., 0., 0., 255., 255., 0.,
          0., 255., 0., 255., 255., 255., 255., 255., 255., 0., 0., 255.,
          0., 0., 255., 255., 255., 247., 0., 0., 0., 255., 0., 0., 0.,
          0., 0., 0., 0., 0., 0., 255., 255., 0., 0., 0., 0., 0., 0.,
          166., 0., 255., 255., 102., 232., 102., 102., 102., 102., 66.,
          56., 255., 255., 255., 255., 255., 255., 255., 255., 255.,
          255., 255., 255., 255., 107., 0., 0., 0., 179., 255., 255.,
          255., 117., 0., 0., 0., 0., 0., 0., 102., 255., 255., 102., 0.,
          0., 0., 0., 0., 0., 0., 204., 204., 0., 0., 0., 0., 0., 0., 0.,
          0., 204., 204., 0., 0., 0., 0., 0., 0., 0., 0., 204., 204., 0.,
          0., 0., 0., 0., 0., 0., 0., 204., 204., 0., 0., 0., 0., 0., 0.,
          0., 0., 204., 255., 102., 0., 0., 0., 0., 0., 0., 0., 204.,
          255., 255., 0., 0., 0., 0., 0., 0., 102., 255., 255., 255.,
          255., 107., 0., 0., 107., 179., 255., 255., 255., 255., 255.,
          107., 0., 0., 107., 255., 255., 255., 255., 102., 0., 0., 0.,
          0., 0., 0., 117., 255., 204., 0., 0., 0., 0., 0., 0., 0., 0.,
          204., 204., 0., 0., 0., 0., 0., 0., 0., 0., 204., 204., 0., 0.,
          0., 0., 0., 0., 0., 0., 204., 204., 0., 0., 0., 0., 0., 0., 0.,
          0., 204., 204., 0., 0., 0., 0., 0., 0., 0., 0., 204., 204., 0.,
          0., 0., 0., 0., 0., 0., 0., 204., 255., 102., 0., 0., 0., 0.,
          0., 0., 102., 255., 255., 255., 179., 0., 0., 0., 0., 179.,
          255., 255., 0., 0., 102., 255., 255., 255., 255., 255., 28.,
          0., 0., 255., 255., 255., 102., 102., 255., 255., 255., 0.,
          217., 255., 255., 13., 0., 0., 13., 255., 255., 0., 0., 0., 0.,
          0., 0., 0., 255., 255., 255., 0., 0., 0., 0., 0., 0., 222.,
          255., 255., 28., 0., 0., 0., 0., 49., 255., 255., 255., 51.,
          0., 0., 0., 0., 178., 255., 255., 102., 0., 0., 0., 0., 0.,
          255., 255., 255., 0., 0., 0., 0., 0., 0., 217., 255., 255.,
          255., 255., 255., 255., 255., 255., 217., 255., 255., 255.,
          255., 255., 255., 255., 255., 255., 224., 0., 0., 51., 255.,
          255., 255., 255., 255., 51., 0., 0., 209., 255., 255., 102.,
          102., 109., 255., 255., 130., 0., 255., 255., 255., 0., 0., 0.,
          255., 255., 217., 0., 0., 0., 0., 0., 0., 109., 255., 255., 0.,
          0., 0., 0., 0., 0., 222., 255., 255., 163., 0., 0., 0., 0.,
          49., 255., 255., 255., 51., 0., 0., 0., 0., 178., 255., 255.,
          201., 0., 0., 0., 0., 0., 140., 255., 255., 89., 0., 0., 0.,
          0., 0., 87., 255., 255., 255., 255., 255., 255., 255., 255.,
          255., 255., 255., 255., 255., 255., 255., 255., 255., 255.,
          255., 255., 255., 179., 0., 0., 0., 107., 255., 255., 255.,
          255., 102., 0., 0., 0., 0., 0., 0., 117., 255., 204., 0., 0.,
          0., 0., 0., 0., 0., 102., 255., 204., 0., 0., 0., 0., 0., 0.,
          0., 0., 204., 204., 0., 0., 0., 0., 0., 0., 0., 0., 204., 204.,
          0., 0., 0., 0., 0., 0., 0., 0., 204., 204., 0., 0., 0., 0., 0.,
          0., 0., 0., 204., 204., 0., 0., 0., 0., 0., 0., 0., 102., 255.,
          255., 102., 0., 0., 0., 0., 0., 0., 102., 255., 255., 255.,
          179., 107., 0., 0., 107., 255., 255., 255., 255., 255., 179.,
          0., 0., 0., 107., 255., 255., 255., 255., 102., 0., 0., 0., 0.,
          0., 0., 117., 255., 204., 0., 0., 0., 0., 0., 0., 0., 102.,
          255., 204., 0., 0., 0., 0., 0., 0., 0., 0., 204., 204., 0., 0.,
          0., 0., 0., 0., 0., 0., 204., 204., 0., 0., 0., 0., 0., 0., 0.,
          0., 204., 204., 0., 0., 0., 0., 0., 0., 0., 0., 204., 204., 0.,
          0., 0., 0., 0., 0., 0., 51., 229., 255., 102., 0., 0., 0., 0.,
          0., 0., 102., 255., 255., 255., 179., 0., 0., 0., 107., 255.,
          255., 255., 0., 0., 13., 245., 255., 255., 255., 255., 28., 0.,
          0., 209., 255., 255., 155., 102., 109., 255., 255., 130., 0.,
          255., 255., 255., 0., 0., 0., 255., 255., 217., 0., 0., 0., 0.,
          0., 0., 109., 255., 255., 130., 0., 0., 0., 0., 0., 204., 255.,
          255., 163., 0., 0., 0., 0., 0., 255., 255., 255., 217., 0., 0.,
          0., 0., 178., 255., 255., 201., 0., 0., 0., 0., 0., 140., 255.,
          255., 89., 0., 0., 0., 0., 0., 87., 255., 255., 255., 255.,
          255., 255., 255., 255., 255., 255., 255., 255., 255., 255.,
          255., 255., 255., 255., 255., 0., 0., 51., 245., 255., 255.,
          255., 255., 28., 0., 0., 209., 255., 255., 155., 102., 109.,
          255., 255., 130., 0., 255., 255., 255., 0., 0., 0., 255., 255.,
          217., 0., 0., 0., 0., 0., 0., 109., 255., 255., 130., 0., 0.,
          0., 0., 0., 204., 255., 255., 163., 0., 0., 0., 0., 0., 255.,
          255., 255., 217., 0., 0., 0., 0., 178., 255., 255., 201., 0.,
          0., 0., 0., 0., 140., 255., 255., 89., 0., 0., 0., 0., 0., 87.,
          255., 255., 255., 255., 255., 255., 255., 255., 255., 255.,
          255., 255., 255., 255., 255., 255., 255., 255., 255., 0., 0.,
          0., 197., 255., 255., 255., 188., 0., 0., 0., 0., 255., 255.,
          255., 255., 255., 255., 255., 13., 0., 29., 191., 255., 0., 0.,
          0., 191., 255., 255., 0., 0., 0., 0., 0., 0., 0., 255., 255.,
          255., 0., 0., 0., 0., 234., 255., 255., 255., 255., 2., 0., 0.,
          0., 0., 217., 217., 255., 255., 38., 0., 0., 0., 0., 0., 0.,
          0., 0., 255., 255., 12., 255., 255., 255., 0., 0., 0., 0.,
          255., 255., 13., 13., 255., 255., 170., 13., 146., 255., 255.,
          255., 0., 0., 25., 255., 255., 255., 255., 255., 188., 0., 0.,
          0., 0., 121., 255., 255., 255., 255., 249., 0., 0., 0., 255.,
          255., 255., 255., 255., 255., 255., 255., 0., 198., 255., 255.,
          121., 0., 0., 76., 255., 255., 255., 255., 179., 255., 76., 0.,
          0., 0., 255., 255., 255., 255., 255., 255., 0., 0., 0., 0.,
          255., 255., 255., 255., 178., 255., 0., 0., 0., 0., 255., 255.,
          255., 255., 255., 255., 76., 0., 0., 0., 255., 205., 255.,
          198., 255., 255., 121., 0., 0., 19., 255., 255., 198., 0.,
          255., 255., 255., 60., 60., 255., 255., 255., 0., 0., 0., 121.,
          255., 255., 255., 255., 121., 0., 0., 0., 0., 0., 205., 255.,
          255., 255., 179., 0., 0., 0., 38., 255., 255., 255., 229.,
          255., 255., 255., 13., 0., 19., 159., 255., 0., 0., 0., 255.,
          255., 255., 0., 0., 0., 0., 0., 0., 0., 255., 255., 255., 0.,
          0., 0., 0., 255., 255., 255., 255., 190., 0., 0., 0., 0., 0.,
          76., 76., 255., 255., 27., 0., 26., 0., 0., 0., 0., 0., 149.,
          255., 255., 13., 255., 255., 191., 0., 0., 0., 166., 255.,
          255., 6., 37., 255., 255., 246., 0., 243., 255., 255., 255.,
          0., 0., 0., 198., 255., 255., 255., 255., 45., 0., 0., 0., 0.,
          0., 205., 255., 255., 255., 179., 0., 0., 0., 60., 255., 255.,
          255., 229., 255., 255., 255., 13., 0., 128., 159., 255., 0.,
          0., 0., 255., 255., 255., 0., 0., 0., 0., 0., 0., 0., 255.,
          255., 255., 0., 0., 0., 0., 255., 255., 255., 255., 179., 0.,
          0., 0., 0., 0., 76., 76., 255., 255., 27., 0., 26., 0., 0., 0.,
          0., 0., 166., 255., 255., 1., 255., 255., 191., 0., 0., 0.,
          166., 255., 255., 6., 37., 255., 255., 229., 0., 243., 255.,
          255., 255., 0., 0., 0., 198., 255., 255., 255., 255., 45., 0.,
          0., 0., 0., 51., 255., 255., 255., 255., 255., 28., 0., 0.,
          209., 255., 255., 102., 102., 255., 255., 255., 0., 0., 255.,
          255., 13., 0., 0., 0., 255., 255., 217., 0., 0., 0., 0., 0.,
          0., 109., 255., 255., 0., 0., 0., 0., 0., 0., 222., 255., 255.,
          163., 0., 0., 0., 0., 49., 255., 255., 255., 51., 0., 0., 0.,
          0., 178., 255., 255., 201., 0., 0., 0., 0., 0., 140., 255.,
          255., 89., 0., 0., 0., 0., 0., 87., 255., 255., 255., 255.,
          255., 255., 255., 255., 255., 255., 255., 255., 255., 255.,
          255., 255., 255., 255., 255., 0., 0., 121., 255., 255., 255.,
          255., 121., 0., 0., 0., 255., 255., 255., 255., 255., 255.,
          255., 255., 0., 255., 255., 255., 76., 0., 0., 121., 255.,
          255., 25., 255., 179., 255., 0., 0., 0., 0., 255., 255., 255.,
          255., 255., 255., 0., 0., 0., 0., 255., 255., 255., 255., 0.,
          255., 0., 0., 0., 0., 255., 255., 255., 255., 179., 255., 0.,
          0., 0., 0., 255., 255., 255., 255., 255., 255., 76., 0., 0.,
          76., 255., 255., 25., 0., 255., 255., 255., 38., 38., 255.,
          255., 255., 0., 0., 0., 249., 255., 255., 255., 255., 121., 0.,
          0., 1., 60., 255., 255., 255., 255., 238., 229., 251., 255.,
          85., 255., 255., 255., 255., 213., 63., 0., 217., 255., 255.,
          255., 255., 255., 198., 57., 0., 0., 108., 249., 255., 255.,
          255., 192., 42., 0., 0., 0., 0., 242., 255., 255., 198., 17.,
          0., 0., 0., 0., 0., 242., 254., 195., 6., 26., 26., 11., 0.,
          0., 0., 242., 173., 76., 121., 255., 255., 115., 0., 0., 0.,
          242., 134., 255., 255., 255., 255., 185., 128., 32., 0., 242.,
          255., 255., 255., 255., 255., 255., 255., 64., 0., 242., 255.,
          255., 198., 26., 129., 255., 255., 236., 229., 254., 255., 0.,
          0., 13., 0., 0., 13., 6., 1., 178., 179., 0., 0., 22., 217.,
          217., 0., 0., 0., 152., 178., 0., 255., 255., 64., 121., 255.,
          223., 0., 0., 116., 80., 89., 0., 0., 0., 255., 255., 0., 0.,
          220., 0., 0., 0., 0., 255., 255., 0., 0., 0., 255., 0., 0.,
          255., 255., 220., 0., 0., 0., 0., 0., 0., 255., 255., 0., 0.,
          0., 0., 0., 0., 0., 255., 255., 255., 255., 255., 255., 255.,
          0., 0., 0., 0., 0., 0., 0., 0., 0., 0., 0., 0., 255., 0., 6.,
          1., 13., 4., 13., 6., 13., 13., 255., 0., 0., 13., 0., 0., 13.,
          3., 12., 166., 166., 0., 0., 0., 217., 217., 0., 0., 0., 141.,
          166., 10., 255., 255., 64., 64., 255., 239., 0., 41., 166.,
          89., 89., 0., 0., 0., 255., 255., 0., 58., 215., 0., 0., 0.,
          21., 255., 255., 0., 0., 0., 255., 0., 0., 255., 255., 255.,
          0., 0., 0., 0., 166., 0., 255., 255., 0., 0., 0., 0., 0., 166.,
          0., 255., 255., 255., 255., 255., 255., 255., 0., 0., 25., 0.,
          0., 0., 0., 0., 0., 0., 0., 166., 255., 0., 3., 0., 13., 0.,
          13., 0., 13., 170., 0., 0., 0., 255., 255., 255., 255., 255.,
          25., 0., 0., 36., 255., 255., 255., 255., 255., 255., 255.,
          243., 0., 0., 191., 255., 0., 0., 0., 191., 255., 255., 0., 0.,
          0., 0., 0., 0., 0., 255., 255., 255., 0., 0., 0., 0., 255.,
          255., 255., 255., 255., 0., 0., 0., 0., 0., 217., 119., 255.,
          255., 70., 0., 115., 0., 0., 0., 0., 0., 0., 255., 255., 12.,
          255., 255., 255., 0., 0., 0., 0., 255., 255., 13., 12., 255.,
          255., 255., 13., 255., 255., 255., 255., 0., 0., 0., 188.,
          255., 255., 255., 255., 166., 0., 0., 255., 0., 0., 0., 0., 0.,
          7., 3., 12., 8., 166., 0., 0., 0., 217., 217., 0., 0., 0.,
          141., 166., 10., 255., 255., 64., 64., 255., 239., 0., 41.,
          166., 89., 89., 0., 0., 0., 255., 255., 0., 58., 215., 0., 0.,
          0., 21., 255., 255., 0., 0., 0., 255., 0., 0., 178., 255.,
          255., 0., 0., 0., 0., 166., 0., 255., 255., 0., 0., 0., 0., 0.,
          166., 0., 255., 255., 255., 255., 255., 255., 255., 0., 0.,
          25., 0., 0., 0., 0., 0., 0., 0., 0., 166., 255., 0., 0., 6.,
          2., 0., 13., 10., 13., 170., 0., 15., 153., 255., 255., 255.,
          239., 229., 255., 255., 15., 184., 255., 255., 255., 239., 71.,
          51., 209., 255., 255., 255., 255., 255., 255., 0., 0., 0.,
          179., 255., 255., 255., 255., 184., 15., 0., 0., 0., 178.,
          255., 255., 255., 153., 15., 0., 0., 0., 0., 36., 235., 250.,
          143., 26., 194., 255., 0., 0., 0., 178., 255., 229., 46., 204.,
          255., 255., 153., 107., 0., 178., 255., 255., 255., 255., 255.,
          255., 255., 255., 128., 179., 255., 255., 255., 127., 0., 138.,
          255., 255., 127., 178., 255., 255., 194., 26., 0., 0., 255.,
          255., 229., 97., 235., 0., 0., 121., 255., 255., 255., 255.,
          249., 0., 0., 0., 255., 255., 255., 255., 255., 255., 255.,
          255., 22., 25., 255., 255., 255., 0., 0., 19., 255., 255.,
          255., 255., 205., 255., 76., 0., 0., 0., 255., 255., 255.,
          255., 178., 255., 76., 0., 0., 0., 255., 255., 255., 255.,
          178., 255., 76., 0., 0., 0., 255., 255., 255., 255., 255.,
          255., 76., 0., 0., 0., 255., 255., 255., 25., 255., 255., 255.,
          0., 0., 0., 255., 255., 255., 0., 255., 255., 255., 255., 38.,
          255., 255., 255., 0., 0., 0., 121., 255., 255., 255., 255.,
          121., 0., 0., 0., 0., 242., 255., 255., 255., 255., 242., 0.,
          0., 0., 255., 255., 255., 255., 255., 255., 255., 255., 0.,
          255., 255., 255., 166., 0., 0., 41., 255., 255., 255., 255.,
          114., 255., 0., 0., 0., 0., 255., 255., 255., 255., 38., 255.,
          0., 0., 0., 0., 255., 255., 255., 255., 38., 255., 0., 0., 0.,
          0., 255., 255., 255., 255., 241., 255., 0., 0., 0., 0., 255.,
          255., 255., 255., 255., 255., 166., 0., 0., 0., 255., 255.,
          255., 11., 255., 255., 255., 38., 38., 255., 255., 255., 0.,
          0., 0., 245., 255., 255., 255., 255., 242., 0., 0., 255., 255.,
          255., 255., 255., 255., 255., 255., 255., 255., 255., 0., 0.,
          0., 0., 0., 0., 0., 0., 255., 255., 0., 255., 255., 255., 255.,
          255., 0., 0., 255., 255., 41., 255., 10., 0., 13., 255., 0.,
          0., 255., 255., 0., 0., 0., 0., 255., 245., 0., 0., 255., 255.,
          0., 0., 245., 255., 64., 0., 0., 0., 255., 255., 0., 255.,
          255., 0., 64., 64., 48., 0., 255., 255., 255., 255., 255.,
          255., 255., 255., 255., 0., 255., 255., 0., 0., 0., 0., 0., 0.,
          0., 0., 255., 255., 255., 255., 255., 255., 255., 255., 255.,
          255., 255., 255., 255., 255., 255., 255., 255., 255., 255.,
          255., 255., 255., 0., 0., 0., 0., 0., 0., 0., 0., 255., 255.,
          0., 255., 255., 255., 255., 255., 0., 0., 255., 255., 0., 255.,
          51., 0., 0., 255., 0., 0., 255., 255., 0., 0., 0., 25., 255.,
          255., 0., 0., 255., 255., 0., 0., 255., 255., 140., 0., 0., 0.,
          255., 255., 0., 255., 255., 0., 64., 64., 64., 0., 255., 255.,
          242., 255., 255., 255., 255., 255., 255., 0., 255., 255., 0.,
          0., 0., 0., 0., 0., 0., 0., 255., 255., 255., 255., 255., 255.,
          255., 255., 255., 255., 255., 255., 255., 255., 255., 255.,
          255., 255., 255., 255., 255., 255., 0., 0., 0., 0., 0., 0., 0.,
          0., 255., 255., 0., 255., 255., 255., 255., 255., 0., 0., 255.,
          115., 166., 255., 10., 0., 13., 255., 0., 0., 255., 255., 0.,
          0., 0., 61., 255., 245., 0., 0., 255., 255., 0., 0., 245.,
          255., 64., 0., 0., 0., 255., 115., 0., 255., 255., 0., 64.,
          64., 48., 0., 255., 0., 255., 255., 255., 255., 255., 255.,
          191., 0., 255., 150., 0., 0., 0., 0., 0., 0., 0., 0., 255.,
          255., 255., 255., 255., 255., 255., 255., 255., 255., 255.,
          255., 0., 0., 0., 0., 0., 11., 6., 1., 9., 179., 0., 0., 0.,
          217., 152., 0., 0., 0., 152., 178., 0., 255., 255., 64., 121.,
          255., 255., 0., 0., 116., 80., 89., 0., 0., 0., 255., 255., 0.,
          0., 220., 0., 0., 0., 0., 255., 255., 57., 0., 0., 255., 0.,
          0., 255., 255., 255., 0., 0., 0., 98., 179., 0., 255., 255.,
          0., 0., 0., 0., 0., 0., 0., 255., 255., 255., 255., 255., 255.,
          255., 0., 0., 0., 0., 0., 0., 0., 0., 0., 0., 0., 0., 255., 0.,
          0., 1., 0., 0., 13., 6., 13., 13., 40., 0., 0., 0., 0., 0., 0.,
          0., 0., 40., 89., 0., 0., 0., 0., 0., 0., 0., 0., 58., 89., 0.,
          0., 255., 255., 255., 255., 255., 0., 67., 89., 0., 0., 38.,
          70., 0., 0., 255., 255., 0., 89., 0., 0., 0., 0., 206., 248.,
          255., 12., 0., 89., 0., 0., 0., 206., 242., 255., 73., 0., 89.,
          89., 0., 255., 136., 0., 0., 115., 255., 0., 13., 89., 0.,
          255., 255., 0., 10., 255., 255., 0., 0., 0., 0., 0., 166.,
          255., 255., 215., 0., 0., 89., 40., 0., 0., 0., 0., 0., 0., 0.,
          0., 89., 255., 255., 255., 255., 255., 255., 255., 255., 255.,
          255., 255., 0., 0., 0., 0., 0., 0., 0., 0., 255., 255., 0.,
          255., 255., 255., 255., 255., 0., 0., 255., 255., 0., 255.,
          51., 0., 0., 255., 0., 0., 255., 255., 0., 0., 0., 25., 255.,
          255., 0., 0., 255., 255., 0., 0., 204., 255., 140., 0., 0., 0.,
          255., 255., 0., 255., 255., 0., 38., 64., 64., 0., 255., 255.,
          242., 255., 255., 255., 255., 255., 255., 0., 255., 255., 0.,
          0., 0., 0., 0., 0., 0., 0., 255., 255., 255., 255., 255., 255.,
          255., 255., 255., 255., 255., 40., 0., 0., 0., 0., 0., 0.,
          115., 0., 89., 89., 0., 0., 0., 0., 0., 0., 0., 0., 197., 0.,
          0., 0., 255., 255., 255., 255., 255., 0., 89., 0., 0., 0.,
          157., 70., 0., 0., 255., 253., 0., 89., 0., 0., 0., 0., 0.,
          248., 255., 12., 89., 0., 0., 0., 0., 206., 242., 255., 13.,
          0., 255., 89., 0., 201., 17., 0., 0., 115., 255., 0., 89., 22.,
          0., 255., 255., 0., 10., 255., 255., 0., 89., 0., 0., 0., 215.,
          255., 255., 215., 0., 0., 147., 0., 0., 0., 0., 0., 0., 0., 0.,
          0., 255., 0., 0., 0., 0., 0., 255., 255., 255., 186., 0., 0.,
          0., 0., 245., 255., 133., 0., 191., 255., 0., 255., 255., 255.,
          255., 255., 255., 242., 191., 255., 0., 217., 255., 255., 61.,
          0., 89., 255., 255., 255., 0., 0., 0., 0., 0., 0., 89., 255.,
          64., 255., 217., 0., 0., 0., 0., 0., 54., 255., 64., 255.,
          217., 0., 0., 0., 0., 0., 0., 255., 64., 255., 217., 0., 0.,
          0., 0., 0., 0., 255., 255., 255., 217., 0., 0., 0., 0., 0., 0.,
          255., 255., 255., 217., 0., 0., 0., 0., 0., 0., 255., 255.,
          255., 255., 40., 0., 0., 0., 0., 0., 0., 115., 0., 89., 89.,
          0., 0., 0., 0., 0., 0., 0., 0., 197., 22., 0., 0., 255., 255.,
          255., 255., 255., 0., 89., 0., 0., 10., 157., 70., 0., 0.,
          255., 253., 13., 89., 0., 0., 0., 0., 0., 248., 255., 12., 89.,
          0., 0., 0., 0., 206., 242., 255., 13., 0., 255., 89., 0., 201.,
          17., 0., 0., 255., 255., 0., 89., 22., 0., 255., 255., 0., 10.,
          255., 255., 0., 89., 0., 0., 0., 215., 255., 255., 215., 0.,
          0., 147., 0., 0., 0., 0., 0., 0., 0., 0., 0., 255., 0., 0., 0.,
          0., 0., 255., 255., 255., 255., 0., 0., 0., 51., 255., 255.,
          41., 0., 255., 255., 0., 255., 255., 255., 255., 255., 255.,
          255., 255., 255., 0., 255., 255., 255., 20., 0., 204., 255.,
          0., 255., 204., 0., 0., 0., 0., 0., 0., 255., 153., 255., 204.,
          0., 0., 0., 0., 0., 0., 255., 255., 255., 204., 0., 0., 0., 0.,
          0., 0., 255., 255., 255., 255., 0., 0., 0., 0., 0., 0., 255.,
          255., 255., 255., 0., 0., 0., 0., 0., 0., 255., 255., 255.,
          255., 0., 0., 0., 0., 0., 0., 255., 255., 255., 255., 255.,
          255., 255., 255., 255., 255., 255., 255., 255., 255., 255., 0.,
          0., 0., 0., 0., 0., 0., 0., 255., 255., 0., 207., 255., 255.,
          255., 255., 0., 0., 255., 255., 0., 255., 38., 0., 0., 255.,
          191., 0., 255., 255., 0., 0., 0., 0., 255., 255., 0., 0., 255.,
          255., 0., 0., 245., 255., 245., 0., 0., 0., 255., 255., 0.,
          255., 255., 0., 0., 64., 48., 0., 255., 255., 233., 255., 255.,
          255., 255., 255., 255., 0., 255., 255., 0., 0., 0., 0., 0., 0.,
          0., 0., 255., 255., 255., 255., 255., 255., 255., 255., 255.,
          255., 255., 255., 255., 255., 255., 255., 255., 255., 255.,
          255., 255., 255., 0., 0., 0., 0., 0., 0., 0., 0., 255., 255.,
          0., 0., 0., 255., 255., 255., 96., 0., 255., 255., 0., 0.,
          255., 255., 0., 63., 255., 0., 255., 255., 0., 0., 0., 0., 14.,
          255., 255., 0., 255., 255., 0., 0., 0., 140., 255., 255., 0.,
          0., 255., 255., 0., 255., 255., 0., 0., 255., 255., 0., 255.,
          255., 0., 191., 255., 128., 185., 255., 223., 0., 255., 255.,
          0., 0., 0., 0., 0., 0., 0., 0., 255., 255., 255., 255., 255.,
          255., 255., 255., 255., 255., 255., 76., 0., 0., 0., 0., 0.,
          0., 102., 0., 76., 76., 0., 0., 0., 0., 0., 0., 0., 0., 219.,
          76., 0., 0., 255., 255., 255., 255., 255., 0., 255., 76., 0.,
          0., 204., 143., 0., 0., 255., 255., 0., 76., 0., 0., 0., 0.,
          102., 255., 255., 15., 76., 76., 0., 0., 0., 148., 209., 255.,
          77., 0., 184., 76., 20., 204., 20., 0., 0., 255., 255., 0.,
          76., 76., 0., 255., 255., 0., 0., 255., 255., 0., 76., 61., 0.,
          0., 184., 204., 255., 184., 0., 0., 112., 31., 0., 0., 0., 0.,
          0., 0., 0., 0., 148., 255., 255., 255., 255., 255., 255., 255.,
          255., 255., 255., 255., 0., 0., 0., 0., 0., 0., 0., 0., 255.,
          255., 0., 0., 0., 255., 255., 255., 0., 0., 255., 255., 0., 0.,
          255., 255., 0., 89., 255., 0., 255., 255., 0., 0., 0., 0., 0.,
          255., 255., 0., 255., 255., 0., 0., 0., 140., 255., 255., 0.,
          0., 255., 255., 0., 255., 179., 0., 0., 255., 255., 0., 255.,
          255., 0., 223., 255., 128., 185., 255., 191., 0., 255., 255.,
          0., 0., 0., 0., 179., 0., 0., 0., 255., 255., 255., 255., 255.,
          255., 255., 255., 255., 255., 255., 255., 255., 255., 255.,
          255., 255., 255., 255., 255., 255., 255., 0., 0., 0., 0., 0.,
          0., 0., 0., 255., 255., 0., 0., 0., 255., 255., 255., 64., 0.,
          255., 255., 0., 0., 255., 255., 0., 0., 255., 0., 255., 255.,
          0., 0., 0., 0., 0., 186., 255., 0., 255., 255., 0., 0., 0.,
          25., 255., 255., 0., 0., 255., 255., 0., 255., 179., 0., 0.,
          255., 255., 0., 255., 255., 0., 191., 255., 128., 128., 255.,
          255., 0., 255., 255., 0., 0., 0., 0., 161., 0., 0., 0., 255.,
          255., 255., 255., 255., 255., 255., 255., 255., 255., 255.,
          255., 0., 0., 0., 0., 0., 0., 0., 0., 255., 255., 0., 0., 0.,
          0., 0., 163., 48., 255., 255., 255., 0., 0., 255., 255., 255.,
          255., 0., 0., 255., 140., 214., 255., 255., 0., 0., 255., 255.,
          89., 140., 0., 255., 255., 217., 0., 0., 217., 255., 255., 0.,
          0., 255., 255., 0., 0., 0., 217., 255., 255., 0., 0., 255.,
          255., 217., 0., 0., 217., 112., 255., 0., 140., 255., 255.,
          255., 0., 0., 255., 255., 89., 140., 255., 0., 0., 255., 255.,
          255., 201., 0., 0., 255., 255., 255., 0., 0., 0., 0., 0., 0.,
          22., 255., 255., 255., 255., 255., 255., 255., 255., 255.,
          255., 244., 255., 0., 0., 0., 0., 0., 0., 0., 0., 242., 255.,
          0., 0., 0., 255., 255., 255., 128., 0., 242., 255., 0., 0.,
          228., 255., 0., 0., 255., 0., 242., 255., 0., 0., 0., 0., 26.,
          255., 255., 0., 255., 255., 0., 0., 0., 14., 129., 255., 0.,
          0., 242., 255., 0., 255., 255., 0., 0., 255., 255., 0., 242.,
          255., 0., 96., 255., 185., 255., 255., 191., 0., 242., 255.,
          0., 19., 0., 0., 0., 0., 0., 0., 242., 255., 255., 255., 255.,
          255., 255., 255., 255., 255., 244., 255., 0., 0., 0., 0., 0.,
          0., 0., 0., 255., 255., 0., 0., 0., 0., 0., 0., 57., 229.,
          255., 255., 0., 0., 255., 255., 255., 255., 0., 0., 198., 140.,
          89., 255., 255., 0., 0., 255., 255., 106., 0., 140., 255., 64.,
          217., 0., 0., 0., 255., 255., 0., 0., 255., 198., 217., 0., 0.,
          0., 255., 255., 0., 140., 255., 64., 217., 0., 0., 0., 255.,
          255., 0., 140., 89., 255., 255., 0., 0., 255., 255., 89., 140.,
          255., 0., 0., 233., 255., 255., 233., 0., 0., 152., 255., 255.,
          0., 179., 0., 0., 0., 0., 50., 174., 255., 255., 255., 255.,
          255., 255., 255., 115., 255., 255., 255., 0., 0., 0., 0., 0.,
          0., 0., 0., 255., 255., 0., 0., 0., 191., 191., 0., 0., 0.,
          255., 255., 0., 255., 255., 49., 49., 255., 255., 0., 255.,
          115., 255., 191., 255., 0., 0., 255., 255., 251., 122., 115.,
          255., 191., 38., 0., 0., 255., 255., 255., 115., 115., 255.,
          255., 255., 0., 0., 255., 255., 242., 136., 255., 0., 255.,
          255., 3., 64., 255., 255., 0., 255., 255., 0., 0., 0., 166.,
          166., 0., 0., 0., 255., 255., 255., 255., 255., 255., 255.,
          255., 255., 115., 255., 255., 0., 0., 0., 0., 0., 0., 0., 0.,
          255., 255., 0., 0., 0., 0., 0., 0., 48., 233., 255., 255., 0.,
          0., 255., 255., 255., 255., 0., 0., 255., 140., 89., 255.,
          255., 0., 0., 255., 255., 89., 140., 0., 255., 255., 217., 0.,
          0., 163., 255., 255., 140., 0., 255., 255., 217., 0., 0., 0.,
          255., 255., 0., 35., 255., 255., 217., 0., 0., 0., 255., 255.,
          140., 140., 131., 255., 255., 0., 0., 245., 255., 89., 140.,
          255., 0., 0., 255., 255., 255., 255., 0., 0., 255., 255., 255.,
          0., 0., 0., 0., 0., 0., 41., 255., 0., 0., 26., 0., 0., 0., 0.,
          0., 0., 0., 0., 0., 0., 0., 0., 0., 0., 0., 0., 0., 0., 0., 0.,
          0., 255., 255., 0., 0., 0., 0., 0., 0., 255., 255., 102., 184.,
          25., 0., 0., 0., 0., 0., 0., 0., 0., 178., 255., 0., 0., 143.,
          0., 0., 0., 0., 0., 239., 255., 0., 0., 204., 0., 0., 0., 0.,
          0., 255., 255., 0., 0., 107., 0., 0., 0., 0., 0., 255., 255.,
          0., 0., 0., 0., 0., 0., 0., 0., 0., 0., 0., 0., 0., 0., 0., 0.,
          0., 0., 0., 0., 0., 0., 178., 255., 255., 255., 255., 255.,
          255., 255., 102., 255., 255., 255., 0., 0., 0., 0., 0., 0., 0.,
          0., 255., 255., 0., 0., 0., 255., 255., 0., 0., 0., 255., 255.,
          0., 255., 255., 122., 122., 255., 255., 0., 255., 255., 255.,
          0., 204., 0., 0., 204., 255., 204., 255., 102., 255., 102.,
          204., 0., 0., 204., 255., 255., 255., 255., 255., 204., 204.,
          0., 0., 204., 255., 204., 255., 255., 0., 255., 255., 0., 0.,
          255., 255., 0., 255., 255., 0., 0., 0., 0., 0., 0., 0., 0.,
          255., 255., 255., 102., 255., 255., 255., 255., 255., 102.,
          255., 0., 0., 32., 0., 0., 0., 0., 0., 0., 0., 0., 0., 0., 0.,
          0., 0., 0., 0., 0., 178., 0., 0., 0., 19., 255., 255., 0., 0.,
          0., 178., 0., 0., 255., 255., 134., 255., 0., 0., 0., 134., 0.,
          0., 0., 0., 0., 0., 25., 0., 0., 178., 0., 0., 0., 0., 0.,
          178., 25., 64., 64., 198., 0., 0., 0., 0., 0., 178., 255., 0.,
          0., 45., 0., 0., 0., 0., 0., 255., 255., 0., 0., 178., 0., 0.,
          0., 0., 0., 0., 0., 0., 0., 178., 0., 0., 0., 0., 0., 0., 0.,
          0., 0., 178., 255., 255., 255., 255., 255., 255., 255., 150.,
          255., 255., 255., 0., 0., 0., 0., 0., 0., 0., 0., 255., 255.,
          0., 0., 0., 191., 191., 0., 0., 0., 255., 255., 0., 255., 255.,
          49., 49., 255., 255., 0., 255., 122., 255., 245., 255., 0., 0.,
          255., 255., 255., 255., 115., 255., 191., 255., 0., 0., 38.,
          255., 255., 115., 255., 255., 255., 255., 0., 0., 70., 255.,
          255., 255., 255., 0., 255., 255., 64., 3., 255., 255., 0.,
          255., 255., 0., 0., 0., 166., 166., 0., 0., 0., 255., 255.,
          255., 255., 255., 248., 255., 255., 255., 115., 255., 255.,
          255., 255., 255., 255., 255., 255., 255., 255., 255., 255.,
          18., 0., 0., 0., 0., 51., 0., 0., 0., 255., 0., 0., 0., 0., 0.,
          0., 0., 0., 0., 255., 0., 0., 0., 0., 0., 51., 0., 255., 0.,
          255., 0., 0., 0., 0., 0., 0., 0., 0., 46., 255., 0., 0., 255.,
          255., 255., 255., 0., 0., 0., 255., 0., 255., 255., 255., 255.,
          255., 255., 0., 0., 255., 166., 255., 255., 0., 0., 255., 255.,
          166., 0., 115., 255., 255., 255., 0., 0., 255., 255., 255., 0.,
          115., 255., 191., 255., 0., 0., 38., 255., 255., 0., 255.,
          255., 255., 247., 255., 217., 255., 255., 0., 255., 255., 0.,
          0., 0., 0., 0., 0., 0., 0., 255., 255., 0., 0., 0., 255., 255.,
          0., 0., 0., 255., 255., 0., 255., 255., 242., 158., 0., 0., 0.,
          255., 255., 0., 0., 0., 0., 102., 51., 0., 0., 255., 255., 0.,
          0., 0., 0., 255., 51., 166., 183., 255., 255., 0., 0., 0., 0.,
          255., 51., 0., 0., 255., 255., 0., 0., 0., 0., 255., 51., 0.,
          0., 255., 255., 0., 0., 0., 0., 0., 0., 0., 0., 255., 255.,
          255., 255., 247., 255., 240., 255., 255., 217., 255., 255.,
          255., 255., 229., 255., 229., 255., 255., 0., 255., 255., 0.,
          0., 0., 0., 0., 0., 0., 0., 255., 255., 0., 0., 0., 255., 255.,
          0., 0., 0., 255., 255., 0., 255., 255., 148., 255., 0., 0., 0.,
          255., 255., 0., 26., 0., 0., 0., 0., 0., 0., 255., 255., 0.,
          0., 0., 0., 102., 5., 255., 255., 255., 255., 0., 0., 0., 0.,
          102., 51., 0., 0., 255., 255., 0., 0., 0., 0., 255., 51., 0.,
          0., 255., 255., 0., 0., 0., 0., 0., 0., 0., 0., 255., 255.,
          255., 255., 250., 255., 245., 234., 255., 229., 255., 255.,
          255., 179., 0., 0., 0., 107., 255., 255., 255., 255., 102., 0.,
          0., 0., 0., 0., 0., 117., 255., 204., 0., 0., 0., 0., 0., 0.,
          0., 102., 255., 204., 0., 0., 0., 0., 0., 0., 0., 102., 255.,
          204., 0., 0., 0., 0., 0., 0., 0., 0., 204., 204., 0., 0., 0.,
          0., 0., 0., 0., 31., 219., 204., 0., 0., 0., 0., 0., 0., 0.,
          102., 255., 204., 0., 0., 0., 0., 0., 0., 0., 102., 255., 255.,
          102., 0., 0., 0., 0., 0., 0., 117., 255., 255., 255., 255.,
          179., 36., 179., 179., 255., 255., 255., 0., 0., 92., 255.,
          255., 255., 255., 255., 157., 0., 0., 255., 255., 255., 49.,
          0., 146., 255., 255., 0., 0., 255., 255., 13., 0., 0., 0.,
          255., 255., 217., 0., 0., 0., 0., 0., 0., 255., 255., 255., 0.,
          25., 0., 0., 0., 0., 255., 255., 255., 91., 0., 38., 0., 0.,
          157., 255., 255., 255., 22., 0., 0., 0., 0., 245., 255., 255.,
          170., 0., 0., 0., 0., 0., 169., 255., 255., 89., 0., 64., 64.,
          64., 54., 119., 255., 255., 255., 255., 255., 255., 255., 255.,
          255., 255., 255., 255., 255., 255., 255., 255., 255., 255.,
          222., 255., 255., 255., 107., 0., 0., 0., 179., 255., 255.,
          255., 117., 0., 0., 0., 0., 0., 0., 102., 255., 255., 102., 0.,
          0., 0., 0., 0., 0., 0., 204., 209., 10., 0., 0., 0., 0., 0.,
          0., 0., 204., 204., 0., 0., 0., 0., 0., 0., 0., 0., 204., 204.,
          0., 0., 0., 0., 0., 0., 0., 0., 204., 255., 102., 0., 0., 0.,
          0., 0., 0., 0., 204., 255., 102., 0., 0., 0., 0., 0., 0., 0.,
          204., 255., 255., 0., 0., 0., 0., 0., 0., 102., 255., 255.,
          255., 255., 179., 36., 0., 107., 255., 255., 255., 255., 255.,
          179., 107., 0., 0., 107., 255., 255., 255., 255., 102., 0., 0.,
          0., 0., 0., 0., 117., 255., 204., 0., 0., 0., 0., 0., 0., 0.,
          0., 204., 204., 0., 0., 0., 0., 0., 0., 0., 0., 204., 204., 0.,
          0., 0., 0., 0., 0., 0., 0., 204., 204., 0., 0., 0., 0., 0., 0.,
          0., 0., 204., 204., 0., 0., 0., 0., 0., 0., 0., 0., 204., 229.,
          51., 0., 0., 0., 0., 0., 0., 51., 229., 255., 117., 0., 0., 0.,
          0., 0., 0., 102., 255., 255., 255., 255., 179., 36., 36., 179.,
          255., 255., 255., 255., 255., 255., 107., 0., 0., 107., 255.,
          255., 255., 255., 102., 0., 0., 0., 0., 0., 0., 102., 255.,
          229., 51., 0., 0., 0., 0., 0., 0., 0., 204., 204., 0., 0., 0.,
          0., 0., 0., 0., 0., 204., 204., 0., 0., 0., 0., 0., 0., 0., 0.,
          204., 204., 0., 0., 0., 0., 0., 0., 0., 0., 204., 204., 0., 0.,
          0., 0., 0., 0., 0., 0., 204., 229., 51., 0., 0., 0., 0., 0.,
          0., 0., 204., 255., 117., 0., 0., 0., 0., 0., 0., 102., 255.,
          255., 255., 255., 179., 36., 0., 107., 255., 255., 255., 255.,
          255., 255., 107., 0., 0., 0., 179., 255., 255., 255., 117., 0.,
          0., 0., 0., 0., 0., 102., 255., 255., 102., 0., 0., 0., 0., 0.,
          0., 0., 204., 209., 10., 0., 0., 0., 0., 0., 0., 0., 204.,
          204., 0., 0., 0., 0., 0., 0., 0., 0., 204., 204., 0., 0., 0.,
          0., 0., 0., 0., 0., 204., 255., 102., 0., 0., 0., 0., 0., 0.,
          0., 204., 255., 102., 0., 0., 0., 0., 0., 0., 0., 204., 255.,
          255., 0., 0., 0., 0., 0., 0., 102., 255., 255., 255., 255.,
          179., 36., 0., 107., 255., 255., 255., 0., 0., 38., 255., 255.,
          255., 255., 255., 21., 0., 0., 192., 255., 255., 140., 140.,
          146., 255., 255., 0., 0., 255., 255., 255., 0., 0., 0., 255.,
          255., 217., 0., 0., 0., 0., 0., 0., 25., 255., 255., 0., 13.,
          0., 0., 0., 0., 147., 255., 255., 215., 0., 38., 0., 0., 0.,
          224., 255., 255., 131., 0., 0., 0., 0., 61., 255., 255., 255.,
          12., 0., 0., 0., 0., 140., 255., 255., 89., 0., 0., 0., 0.,
          54., 0., 255., 255., 255., 255., 255., 255., 255., 255., 255.,
          249., 255., 255., 255., 255., 255., 255., 255., 255., 255., 0.,
          0., 38., 255., 255., 255., 255., 255., 21., 0., 0., 140., 255.,
          255., 140., 140., 146., 255., 255., 0., 0., 255., 255., 255.,
          0., 0., 0., 255., 255., 217., 0., 0., 0., 0., 0., 0., 25.,
          255., 255., 0., 0., 0., 0., 0., 0., 147., 255., 255., 215., 0.,
          0., 0., 0., 0., 224., 255., 255., 131., 0., 0., 0., 0., 61.,
          255., 255., 255., 12., 0., 0., 0., 0., 35., 255., 255., 89.,
          0., 0., 0., 0., 54., 0., 255., 255., 255., 255., 255., 255.,
          255., 255., 255., 249., 255., 255., 255., 255., 255., 255.,
          255., 255., 255., 0., 0., 242., 255., 255., 255., 255., 242.,
          0., 0., 0., 255., 255., 255., 255., 255., 255., 255., 255., 0.,
          255., 255., 255., 166., 0., 0., 41., 255., 255., 255., 255.,
          217., 255., 0., 0., 0., 0., 255., 255., 255., 255., 136., 255.,
          0., 0., 0., 0., 255., 255., 255., 255., 0., 255., 0., 0., 0.,
          0., 255., 255., 255., 255., 255., 255., 0., 0., 0., 0., 255.,
          255., 255., 255., 255., 255., 166., 0., 0., 0., 255., 255.,
          194., 0., 255., 255., 255., 255., 255., 255., 255., 255., 0.,
          0., 0., 61., 255., 255., 255., 255., 0., 0., 0., 255., 0., 0.,
          0., 0., 0., 0., 0., 0., 8., 255., 0., 0., 0., 0., 0., 0., 0.,
          0., 141., 166., 10., 255., 255., 64., 226., 255., 143., 0.,
          41., 166., 89., 89., 0., 0., 0., 255., 214., 0., 108., 255.,
          0., 0., 0., 21., 255., 255., 0., 0., 0., 255., 0., 0., 255.,
          255., 255., 0., 0., 0., 0., 166., 0., 255., 255., 0., 0., 0.,
          0., 0., 0., 0., 255., 255., 255., 255., 255., 255., 255., 0.,
          0., 166., 0., 0., 0., 0., 0., 0., 0., 0., 0., 255., 0., 3., 0.,
          13., 0., 13., 10., 13., 8., 0., 0., 38., 255., 255., 255.,
          255., 255., 23., 0., 0., 31., 255., 255., 255., 51., 255.,
          255., 255., 13., 0., 0., 64., 255., 0., 0., 0., 255., 255.,
          255., 0., 0., 0., 0., 0., 0., 0., 255., 255., 206., 0., 0., 0.,
          0., 255., 255., 255., 255., 153., 0., 0., 0., 0., 0., 102.,
          102., 255., 255., 23., 0., 0., 0., 0., 0., 0., 0., 166., 255.,
          255., 0., 255., 255., 255., 0., 0., 0., 166., 255., 255., 0.,
          13., 255., 255., 184., 51., 163., 255., 255., 211., 0., 0., 0.,
          255., 255., 255., 255., 255., 38., 0., 0., 0., 0., 0., 255.,
          255., 255., 255., 255., 23., 0., 0., 31., 255., 255., 255.,
          255., 255., 255., 255., 13., 0., 0., 255., 255., 0., 0., 0.,
          255., 255., 255., 0., 0., 0., 0., 0., 0., 0., 255., 255., 255.,
          0., 0., 0., 0., 255., 255., 255., 255., 168., 0., 0., 0., 0.,
          0., 102., 102., 255., 255., 23., 0., 0., 0., 0., 0., 0., 0.,
          33., 255., 255., 0., 255., 255., 255., 0., 0., 0., 166., 255.,
          255., 13., 13., 255., 255., 184., 51., 163., 255., 255., 255.,
          0., 0., 23., 255., 255., 255., 255., 255., 153., 0., 0., 0.,
          0., 121., 255., 255., 255., 255., 242., 0., 0., 0., 255., 255.,
          255., 255., 255., 255., 255., 255., 0., 25., 255., 255., 121.,
          0., 0., 76., 255., 255., 198., 255., 205., 255., 76., 0., 0.,
          0., 255., 255., 255., 255., 178., 255., 0., 0., 0., 0., 255.,
          255., 255., 255., 178., 255., 0., 0., 0., 0., 255., 255., 255.,
          255., 255., 255., 76., 0., 0., 0., 255., 255., 255., 25., 255.,
          255., 121., 0., 0., 19., 255., 255., 25., 0., 255., 255., 255.,
          255., 60., 255., 255., 228., 0., 0., 0., 121., 255., 255.,
          255., 255., 0., 0., 0., 0., 0., 61., 255., 255., 255., 255.,
          242., 0., 0., 0., 255., 255., 255., 255., 255., 255., 255.,
          255., 0., 194., 255., 255., 166., 0., 0., 41., 255., 255.,
          255., 255., 217., 255., 0., 0., 0., 0., 255., 255., 255., 255.,
          217., 255., 0., 0., 0., 0., 255., 255., 255., 255., 0., 255.,
          0., 0., 0., 0., 255., 255., 255., 255., 255., 255., 0., 0., 0.,
          0., 255., 255., 255., 194., 255., 255., 166., 0., 0., 0., 255.,
          255., 255., 0., 255., 255., 255., 255., 157., 255., 255., 255.,
          0., 0., 0., 61., 255., 255., 255., 255., 61., 0., 0., 0., 0.,
          121., 255., 255., 255., 255., 121., 0., 0., 0., 255., 255.,
          255., 255., 255., 255., 255., 255., 0., 198., 255., 255., 76.,
          0., 0., 76., 255., 255., 25., 255., 179., 255., 0., 0., 0., 0.,
          255., 255., 255., 255., 255., 255., 0., 0., 0., 0., 255., 255.,
          255., 255., 178., 255., 0., 0., 0., 0., 255., 255., 255., 255.,
          255., 255., 0., 0., 0., 0., 255., 255., 255., 198., 255., 255.,
          76., 0., 0., 76., 255., 255., 25., 0., 255., 255., 255., 255.,
          60., 255., 255., 228., 0., 0., 0., 121., 255., 255., 255.,
          251., 0., 0., 0., 0., 0., 121., 255., 255., 255., 255., 121.,
          0., 0., 0., 255., 255., 255., 255., 255., 255., 255., 255., 0.,
          25., 255., 255., 121., 0., 0., 76., 255., 255., 198., 255.,
          205., 255., 76., 0., 0., 0., 255., 255., 255., 255., 178.,
          255., 0., 0., 0., 0., 255., 255., 255., 255., 178., 255., 0.,
          0., 0., 0., 255., 255., 255., 255., 255., 255., 76., 0., 0.,
          0., 255., 205., 255., 25., 255., 255., 121., 0., 0., 19., 255.,
          255., 25., 0., 255., 255., 255., 255., 60., 255., 255., 228.,
          0., 0., 0., 121., 255., 255., 255., 255., 0., 0., 0., 255.,
          255., 255., 255., 255., 255., 255., 255., 255., 255., 255., 0.,
          0., 0., 0., 0., 0., 0., 0., 255., 255., 0., 255., 255., 255.,
          255., 255., 0., 0., 255., 255., 166., 255., 0., 0., 13., 255.,
          0., 0., 255., 255., 0., 0., 0., 61., 255., 245., 0., 0., 255.,
          255., 0., 0., 255., 255., 61., 0., 0., 0., 255., 255., 0.,
          255., 255., 0., 64., 64., 0., 0., 255., 115., 255., 255., 255.,
          255., 255., 255., 191., 0., 255., 255., 0., 0., 0., 0., 0., 0.,
          0., 0., 255., 255., 255., 255., 255., 255., 255., 255., 255.,
          255., 255., 255., 0., 0., 0., 0., 0., 26., 6., 24., 166., 255.,
          0., 0., 0., 179., 179., 0., 0., 0., 116., 210., 6., 255., 255.,
          128., 128., 255., 191., 0., 83., 192., 9., 179., 0., 0., 0.,
          255., 255., 0., 116., 255., 0., 0., 0., 4., 255., 255., 0., 0.,
          0., 255., 0., 0., 241., 255., 255., 0., 0., 0., 0., 192., 0.,
          255., 255., 0., 0., 0., 0., 0., 116., 166., 255., 255., 255.,
          255., 255., 255., 255., 0., 0., 166., 0., 0., 0., 0., 0., 0.,
          0., 0., 50., 255., 0., 6., 11., 4., 0., 11., 0., 24., 166.,
          255., 3., 0., 0., 0., 0., 0., 0., 3., 178., 179., 0., 0., 0.,
          179., 179., 0., 0., 0., 125., 179., 0., 255., 255., 128., 128.,
          255., 255., 0., 0., 179., 0., 179., 0., 0., 0., 255., 255., 0.,
          0., 255., 0., 0., 0., 0., 255., 255., 115., 0., 0., 255., 0.,
          0., 232., 255., 255., 3., 0., 0., 18., 179., 0., 255., 255.,
          23., 0., 0., 0., 0., 0., 0., 242., 255., 255., 255., 255.,
          255., 255., 0., 0., 54., 0., 0., 0., 0., 0., 0., 0., 0., 0.,
          255., 0., 0., 0., 0., 0., 26., 13., 3., 26., 255., 255., 255.,
          255., 255., 255., 255., 255., 255., 255., 255., 0., 0., 0., 0.,
          0., 0., 0., 0., 255., 255., 0., 255., 255., 255., 255., 255.,
          0., 0., 255., 255., 99., 255., 23., 0., 13., 255., 0., 0.,
          255., 255., 0., 0., 0., 0., 255., 255., 0., 0., 255., 255., 0.,
          0., 255., 255., 194., 0., 0., 0., 255., 255., 0., 255., 255.,
          0., 0., 0., 0., 0., 255., 115., 255., 255., 255., 255., 255.,
          255., 191., 0., 255., 255., 0., 0., 0., 0., 0., 0., 0., 0.,
          255., 255., 255., 255., 255., 255., 255., 255., 255., 255.,
          255., 255., 255., 255., 255., 255., 255., 255., 255., 255.,
          255., 255., 0., 0., 0., 0., 0., 0., 0., 0., 255., 255., 0.,
          191., 255., 255., 255., 255., 0., 0., 255., 255., 0., 255.,
          168., 0., 0., 255., 191., 0., 255., 255., 0., 0., 0., 0., 255.,
          255., 0., 0., 255., 255., 0., 0., 224., 255., 252., 0., 0., 0.,
          255., 255., 0., 229., 255., 0., 0., 0., 115., 0., 255., 255.,
          166., 255., 255., 255., 255., 255., 255., 0., 255., 255., 0.,
          0., 0., 0., 0., 0., 0., 0., 255., 255., 255., 255., 255., 255.,
          255., 255., 255., 255., 255., 89., 0., 0., 0., 0., 0., 0., 0.,
          0., 89., 89., 0., 0., 0., 0., 0., 0., 0., 0., 255., 89., 0.,
          0., 255., 255., 255., 255., 255., 0., 89., 89., 0., 0., 70.,
          19., 0., 0., 255., 249., 0., 89., 0., 0., 0., 0., 128., 255.,
          255., 0., 89., 89., 0., 0., 0., 108., 128., 255., 128., 0.,
          255., 89., 0., 255., 185., 0., 0., 115., 255., 0., 89., 89.,
          0., 255., 255., 0., 19., 255., 255., 0., 89., 0., 0., 0., 128.,
          236., 255., 128., 0., 0., 172., 45., 0., 0., 0., 0., 0., 0.,
          0., 0., 172., 255., 255., 255., 255., 255., 243., 229., 236.,
          255., 255., 255., 255., 255., 255., 213., 98., 0., 45., 190.,
          255., 255., 255., 255., 172., 57., 0., 0., 0., 38., 255., 255.,
          255., 121., 27., 0., 0., 0., 0., 38., 255., 255., 60., 6., 0.,
          0., 0., 0., 0., 38., 255., 229., 56., 198., 106., 11., 0., 0.,
          0., 38., 255., 76., 228., 255., 255., 157., 42., 0., 0., 38.,
          255., 255., 255., 255., 255., 255., 198., 83., 0., 38., 255.,
          255., 255., 121., 192., 255., 255., 166., 45., 190., 255.,
          255., 60., 6., 166., 255., 255., 246., 236., 255., 255., 51.,
          0., 0., 0., 0., 0., 0., 0., 0., 178., 102., 0., 0., 0., 0., 0.,
          0., 0., 0., 255., 51., 0., 0., 255., 255., 255., 255., 255.,
          0., 102., 51., 0., 0., 128., 0., 0., 0., 255., 255., 0., 102.,
          0., 0., 0., 0., 128., 255., 255., 0., 102., 0., 0., 0., 0.,
          128., 128., 255., 128., 0., 255., 102., 204., 255., 102., 0.,
          0., 204., 255., 0., 102., 51., 0., 255., 255., 0., 77., 255.,
          255., 0., 102., 0., 0., 0., 128., 255., 255., 128., 0., 0.,
          178., 0., 0., 0., 0., 0., 0., 0., 0., 0., 178., 0., 0., 0., 0.,
          0., 255., 255., 255., 255., 0., 0., 0., 0., 243., 255., 251.,
          0., 191., 255., 0., 245., 255., 255., 255., 233., 255., 182.,
          191., 255., 0., 217., 255., 255., 146., 0., 89., 255., 255.,
          255., 0., 0., 0., 0., 0., 0., 89., 255., 64., 255., 217., 0.,
          0., 0., 0., 0., 0., 255., 226., 255., 217., 0., 0., 0., 0., 0.,
          0., 255., 64., 255., 217., 0., 0., 0., 0., 0., 0., 255., 255.,
          255., 217., 0., 0., 0., 0., 0., 0., 255., 255., 255., 217., 0.,
          0., 0., 0., 0., 0., 255., 255., 255., 255., 255., 0., 0., 0.,
          0., 0., 0., 0., 0., 255., 255., 0., 0., 0., 0., 0., 153., 38.,
          255., 255., 255., 0., 0., 255., 255., 255., 255., 0., 0., 255.,
          140., 89., 255., 255., 0., 0., 255., 255., 89., 140., 140.,
          255., 64., 217., 0., 0., 217., 255., 255., 140., 0., 255., 64.,
          217., 0., 0., 0., 255., 255., 0., 140., 255., 255., 217., 0.,
          0., 217., 255., 255., 140., 140., 89., 255., 255., 0., 0.,
          255., 255., 0., 140., 255., 0., 0., 168., 255., 255., 168., 0.,
          0., 255., 255., 255., 0., 0., 0., 0., 0., 0., 18., 255., 255.,
          255., 255., 255., 255., 255., 255., 255., 255., 255., 255., 0.,
          0., 0., 0., 0., 0., 0., 0., 255., 255., 0., 0., 19., 255.,
          255., 255., 159., 0., 255., 255., 0., 0., 255., 255., 0., 0.,
          255., 0., 255., 255., 0., 0., 0., 0., 17., 228., 255., 0.,
          255., 255., 0., 0., 0., 17., 166., 255., 45., 0., 255., 255.,
          0., 255., 255., 0., 0., 182., 255., 0., 255., 255., 0., 127.,
          255., 191., 191., 255., 159., 0., 255., 255., 0., 57., 0., 0.,
          0., 0., 0., 0., 255., 255., 255., 255., 255., 255., 255., 255.,
          255., 255., 255., 0., 0., 0., 0., 0., 255., 255., 255., 255.,
          0., 0., 0., 0., 243., 255., 157., 0., 191., 255., 0., 245.,
          255., 255., 255., 233., 255., 182., 191., 255., 0., 217., 255.,
          255., 140., 0., 89., 255., 169., 255., 0., 0., 0., 0., 0., 0.,
          89., 255., 64., 255., 217., 0., 0., 0., 0., 0., 0., 255., 64.,
          255., 217., 0., 0., 0., 0., 0., 0., 255., 64., 255., 217., 0.,
          0., 0., 0., 0., 0., 255., 255., 255., 217., 0., 0., 0., 0., 0.,
          0., 255., 255., 255., 217., 0., 0., 0., 0., 0., 0., 255., 255.,
          255., 255., 255., 255., 255., 255., 255., 255., 255., 255.,
          255., 255., 255., 0., 0., 0., 0., 0., 0., 0., 0., 255., 255.,
          0., 0., 0., 255., 255., 255., 112., 0., 255., 255., 0., 0.,
          255., 255., 0., 13., 255., 0., 255., 255., 0., 0., 0., 0., 0.,
          255., 255., 0., 255., 255., 0., 0., 0., 108., 166., 255., 22.,
          0., 255., 255., 0., 255., 255., 0., 0., 255., 255., 0., 255.,
          255., 0., 255., 255., 191., 214., 255., 255., 0., 255., 255.,
          0., 0., 0., 0., 0., 0., 0., 0., 255., 255., 255., 255., 255.,
          255., 255., 255., 255., 255., 255., 0., 0., 0., 0., 0., 255.,
          255., 255., 255., 0., 0., 0., 0., 255., 255., 245., 0., 255.,
          255., 0., 255., 255., 255., 255., 255., 255., 191., 255., 255.,
          0., 255., 255., 255., 56., 0., 0., 255., 0., 255., 204., 0.,
          0., 0., 0., 0., 0., 255., 38., 255., 204., 0., 0., 0., 0., 0.,
          0., 255., 255., 255., 204., 0., 0., 0., 0., 0., 0., 255., 255.,
          255., 232., 0., 0., 0., 0., 0., 0., 255., 255., 255., 255., 0.,
          0., 0., 0., 0., 0., 255., 255., 255., 255., 0., 0., 0., 0., 0.,
          0., 255., 255., 255., 255., 255., 255., 255., 255., 255., 255.,
          255., 128., 255., 255., 255., 0., 0., 0., 0., 0., 0., 0., 128.,
          255., 255., 0., 0., 108., 255., 255., 108., 0., 0., 255., 255.,
          0., 255., 255., 6., 6., 255., 255., 0., 255., 255., 255., 64.,
          255., 0., 0., 255., 255., 255., 255., 115., 255., 0., 255., 0.,
          0., 38., 255., 255., 115., 255., 255., 255., 255., 0., 0.,
          255., 255., 210., 255., 255., 0., 255., 255., 134., 128., 255.,
          255., 0., 255., 255., 0., 0., 0., 121., 0., 0., 0., 0., 255.,
          255., 255., 159., 255., 255., 255., 255., 255., 255., 255.,
          255., 0., 0., 0., 0., 0., 0., 0., 0., 255., 255., 0., 0., 0.,
          0., 0., 0., 0., 153., 255., 255., 0., 0., 217., 255., 255.,
          255., 0., 0., 153., 153., 51., 255., 255., 25., 0., 255., 255.,
          204., 0., 0., 255., 255., 255., 0., 0., 51., 255., 255., 0.,
          0., 255., 255., 51., 0., 0., 51., 255., 255., 0., 0., 255.,
          255., 255., 0., 0., 51., 255., 255., 0., 153., 102., 255.,
          255., 0., 0., 255., 255., 102., 115., 255., 0., 0., 242., 255.,
          255., 242., 0., 0., 153., 255., 255., 0., 153., 0., 0., 0., 0.,
          89., 179., 255., 0., 0., 0., 0., 0., 0., 0., 0., 255., 255.,
          0., 0., 0., 0., 0., 0., 0., 191., 255., 255., 0., 0., 255.,
          255., 255., 255., 0., 0., 255., 255., 67., 255., 255., 61., 0.,
          255., 255., 89., 140., 140., 255., 64., 217., 0., 0., 0., 255.,
          255., 140., 140., 255., 255., 217., 0., 0., 0., 255., 255., 0.,
          140., 255., 255., 217., 0., 0., 0., 255., 255., 35., 140., 89.,
          255., 255., 0., 0., 245., 255., 89., 140., 255., 0., 0., 201.,
          255., 255., 201., 0., 0., 255., 255., 255., 0., 29., 0., 0.,
          0., 0., 41., 255., 255., 0., 0., 0., 0., 0., 0., 0., 0., 255.,
          255., 0., 0., 0., 0., 0., 0., 0., 191., 255., 255., 0., 0.,
          217., 255., 255., 217., 0., 0., 230., 153., 204., 255., 255.,
          25., 25., 255., 255., 51., 38., 0., 255., 255., 51., 0., 0.,
          51., 255., 255., 0., 0., 255., 255., 51., 0., 0., 51., 255.,
          255., 0., 0., 255., 255., 51., 0., 0., 51., 255., 255., 0.,
          153., 255., 255., 255., 0., 0., 255., 255., 51., 153., 255.,
          0., 0., 242., 255., 255., 191., 0., 0., 153., 255., 217., 0.,
          153., 0., 0., 0., 0., 51., 179., 255., 0., 0., 0., 0., 0., 0.,
          0., 0., 255., 255., 0., 0., 0., 0., 0., 0., 0., 191., 255.,
          255., 0., 0., 255., 255., 255., 255., 0., 0., 255., 140., 89.,
          255., 255., 0., 0., 255., 255., 67., 140., 0., 255., 255.,
          217., 0., 0., 217., 255., 255., 140., 0., 255., 255., 0., 0.,
          0., 217., 255., 255., 35., 0., 255., 255., 217., 0., 0., 217.,
          112., 255., 140., 140., 131., 255., 255., 0., 0., 255., 255.,
          22., 226., 255., 0., 0., 255., 255., 255., 201., 0., 0., 255.,
          255., 255., 0., 163., 0., 0., 0., 0., 0., 255., 255., 255.,
          255., 255., 255., 255., 255., 220., 255., 255., 255., 0., 0.,
          0., 0., 0., 0., 0., 0., 255., 255., 0., 0., 0., 191., 191., 0.,
          0., 0., 255., 255., 0., 255., 255., 49., 49., 255., 255., 0.,
          255., 122., 255., 255., 255., 0., 0., 255., 255., 166., 255.,
          115., 255., 252., 38., 0., 0., 255., 255., 255., 255., 136.,
          255., 255., 255., 0., 0., 255., 255., 166., 255., 255., 0.,
          255., 255., 64., 73., 255., 255., 0., 255., 255., 0., 0., 0.,
          166., 0., 0., 0., 0., 255., 255., 255., 150., 255., 255., 255.,
          255., 255., 164., 255., 255., 255., 255., 255., 255., 255.,
          255., 220., 255., 255., 255., 0., 0., 0., 0., 0., 0., 0., 0.,
          255., 255., 0., 0., 0., 191., 191., 0., 0., 0., 255., 255., 0.,
          255., 255., 255., 49., 255., 255., 0., 255., 255., 251., 64.,
          255., 0., 0., 38., 255., 255., 255., 248., 255., 242., 255.,
          0., 0., 38., 255., 255., 115., 255., 242., 255., 255., 0., 0.,
          38., 255., 255., 255., 255., 0., 255., 255., 73., 64., 255.,
          255., 0., 255., 255., 0., 0., 0., 166., 0., 0., 0., 0., 255.,
          255., 255., 255., 255., 255., 255., 255., 255., 206., 255.,
          255., 255., 255., 255., 255., 248., 255., 115., 255., 255.,
          255., 0., 0., 0., 0., 0., 0., 0., 0., 255., 255., 0., 0., 0.,
          191., 182., 0., 0., 0., 255., 255., 0., 255., 255., 49., 255.,
          255., 255., 0., 255., 115., 255., 191., 49., 0., 0., 255.,
          255., 166., 255., 115., 255., 252., 38., 0., 0., 255., 255.,
          255., 255., 115., 255., 255., 38., 0., 0., 255., 255., 166.,
          255., 255., 0., 255., 255., 64., 73., 255., 255., 0., 255.,
          255., 0., 0., 0., 166., 0., 0., 0., 0., 255., 255., 255., 255.,
          255., 248., 255., 255., 255., 115., 255., 255., 255., 255.,
          255., 255., 248., 255., 115., 255., 255., 255., 0., 0., 0., 0.,
          0., 0., 0., 0., 255., 255., 0., 0., 0., 191., 191., 0., 0., 0.,
          255., 255., 0., 255., 255., 49., 49., 255., 255., 0., 255.,
          122., 255., 255., 255., 0., 0., 255., 255., 166., 255., 115.,
          255., 252., 38., 0., 0., 255., 255., 255., 122., 136., 255.,
          255., 255., 0., 0., 255., 255., 166., 255., 255., 0., 255.,
          255., 64., 73., 255., 255., 0., 255., 255., 0., 0., 0., 166.,
          0., 0., 0., 0., 255., 255., 255., 150., 255., 255., 255., 255.,
          255., 255., 255., 255., 0., 0., 0., 0., 0., 0., 0., 0., 255.,
          255., 0., 0., 0., 133., 146., 0., 0., 0., 255., 255., 0., 0.,
          226., 10., 255., 0., 0., 0., 255., 255., 0., 255., 255., 0.,
          255., 0., 0., 0., 255., 255., 0., 0., 0., 0., 13., 0., 0., 0.,
          255., 255., 0., 0., 0., 0., 0., 0., 41., 0., 255., 255., 0.,
          0., 0., 0., 242., 0., 0., 0., 255., 255., 0., 0., 0., 0., 255.,
          163., 0., 0., 255., 255., 0., 0., 0., 0., 0., 0., 0., 0., 255.,
          255., 255., 255., 255., 255., 255., 255., 255., 255., 255.,
          255., 0., 0., 0., 0., 0., 0., 0., 0., 255., 255., 0., 0., 0.,
          0., 0., 0., 0., 0., 255., 255., 0., 0., 0., 255., 230., 0., 0.,
          0., 255., 255., 0., 255., 255., 166., 255., 0., 0., 0., 255.,
          255., 0., 0., 0., 0., 102., 51., 0., 0., 255., 255., 0., 0.,
          0., 0., 171., 51., 255., 255., 255., 255., 0., 0., 0., 0.,
          255., 51., 0., 0., 255., 255., 0., 0., 0., 0., 255., 51., 0.,
          0., 255., 255., 0., 0., 0., 0., 0., 0., 0., 0., 255., 255.,
          255., 255., 252., 255., 250., 255., 255., 242., 255., 255., 0.,
          0., 0., 0., 0., 0., 0., 0., 255., 255., 0., 0., 0., 0., 146.,
          0., 0., 0., 255., 255., 0., 0., 226., 194., 255., 0., 0., 0.,
          255., 255., 0., 255., 255., 0., 13., 0., 0., 0., 255., 255.,
          0., 0., 0., 0., 255., 0., 0., 0., 255., 255., 0., 0., 0., 0.,
          242., 141., 0., 0., 255., 255., 0., 0., 0., 0., 255., 217., 0.,
          0., 255., 255., 0., 0., 0., 0., 255., 217., 0., 0., 255., 255.,
          0., 0., 0., 0., 0., 0., 0., 0., 255., 255., 255., 255., 255.,
          255., 255., 255., 255., 255., 255. ]
   responses: !!opencv-matrix
      rows: 140
      cols: 1
      dt: f
      data: [ 3., 2., 0., 0., 0., 2., 1., 3., 3., 2., 3., 2., 2., 1., 0.,
          0., 0., 3., 1., 2., 2., 1., 1., 0., 2., 3., 1., 1., 1., 1., 0.,
          1., 3., 3., 3., 0., 0., 0., 1., 0., 0., 0., 1., 1., 1., 1., 1.,
          1., 0., 0., 0., 2., 2., 0., 0., 2., 2., 3., 0., 3., 3., 2., 0.,
          1., 2., 2., 0., 2., 1., 2., 0., 2., 2., 2., 2., 3., 0., 3., 1.,
          3., 1., 2., 3., 3., 3., 3., 0., 3., 0., 0., 0., 1., 0., 1., 0.,
          0., 1., 1., 0., 2., 0., 0., 0., 2., 2., 2., 0., 2., 3., 3., 0.,
          0., 0., 0., 2., 2., 2., 2., 2., 3., 1., 3., 1., 0., 3., 1., 3.,
          1., 0., 0., 0., 0., 1., 0., 0., 0., 1., 1., 1., 1. ]
